82 128
33 -0.0199846 0.65682 0.0718559 0.0720079 -0.412022 0.144843 -0.011366 0.206718 0.0306653 -0.340061 -0.11345 -0.304369 -0.0557644 0.229198 0.0469282 0.296389 0.232891 0.286167 0.315578 0.00226912 0.199776 0.143248 -0.178833 0.143019 0.0869845 0.391529 -0.0888753 0.128977 -0.0177709 0.346337 -0.163967 -0.0119014 -0.0093134 0.2833 0.501468 -0.231413 -0.0902147 -0.00613107 -0.163837 0.0618471 -0.414032 0.255097 -0.12389 -0.180301 -0.225824 0.0327205 0.173149 -0.279912 0.375968 -0.144866 0.302335 -0.320808 0.0617644 0.229276 0.169987 -0.00698128 0.0627683 0.312773 0.202902 0.0727807 -0.126155 0.00594938 0.110239 0.0356194 0.180283 0.510848 -0.066367 -0.219371 0.0609596 0.555944 0.0306909 -0.00409232 0.279793 0.0173265 0.140881 -0.0400829 0.40976 -0.0287543 0.224829 0.138305 0.252033 -0.0281327 -0.359878 0.429787 0.381645 0.132406 0.0739545 0.0775063 0.0175904 -0.110894 -0.352567 -0.598005 -0.0120021 0.182361 -0.139149 0.172711 0.00241243 0.157095 0.0403949 0.268885 -0.107363 0.360365 0.0602626 -0.276418 -0.0081934 0.0849263 -0.272641 -0.244712 -0.258134 -0.13072 -0.510894 0.127222 -0.22536 -0.244172 0.269409 0.299229 0.45239 -0.0444556 -0.148241 -0.37858 0.118357 0.367746 0.323411 -0.283253 0.368008 -0.338333 -0.0304291 0.0938036
67 -0.000829019 0.583908 0.126722 0.0707209 -0.431529 0.202023 -0.00344671 0.251092 0.114543 -0.378578 -0.137797 -0.338369 -0.0501047 0.214604 0.00721129 0.391571 0.253648 0.268886 0.236995 0.0141266 0.258505 0.158161 -0.158283 0.153515 0.0714595 0.437149 -0.0746892 0.120541 -0.0541478 0.34574 -0.194672 0.0237566 0.0257308 0.343325 0.501365 -0.154719 -0.0619692 -0.0296612 -0.103721 0.0854514 -0.373166 0.265929 -0.123729 -0.242492 -0.154387 0.0495122 0.18275 -0.286615 0.325655 -0.171419 0.311563 -0.319023 0.0927198 0.174963 0.212399 -0.0132968 0.0478738 0.299558 0.178948 0.0420298 -0.19743 0.0144158 0.154699 0.0645251 0.250776 0.514381 -0.0397701 -0.148185 0.0541611 0.546953 0.0438547 -0.0344013 0.299032 0.0483599 0.225163 0.00407068 0.45206 -0.0951737 0.306393 0.114776 0.314785 -0.022241 -0.365402 0.445995 0.431109 0.185839 0.087573 0.0912999 0.043835 -0.182521 -0.324599 -0.581898 -0.0365474 0.170094 -0.12299 0.210741 -0.0296923 0.15113 0.0371772 0.225436 -0.0794066 0.373844 0.000191611 -0.197642 0.0339432 0.0972598 -0.192542 -0.290629 -0.297183 -0.184988 -0.490338 0.115719 -0.229362 -0.227909 0.324544 0.399011 0.513389 -0.0247133 -0.173462 -0.370168 0.0848965 0.36765 0.31254 -0.274418 0.326803 -0.312546 0.0495042 0.0197625
2 0.0180664 0.595996 0.131569 0.0721741 -0.420807 0.198102 -0.00919786 0.248987 0.111922 -0.406435 -0.13366 -0.324005 -0.0599354 0.250745 0.000236369 0.402957 0.222309 0.265213 0.247232 0.00569062 0.290015 0.185712 -0.162785 0.155023 0.0580975 0.435747 -0.0581781 0.115864 -0.0426605 0.34655 -0.215141 0.0486138 0.00835213 0.338739 0.528259 -0.165348 -0.0606887 -0.0279777 -0.0896394 0.071349 -0.355039 0.306668 -0.125293 -0.279296 -0.169465 0.0165347 0.186293 -0.282591 0.340001 -0.165795 0.317673 -0.298672 0.129706 0.140834 0.210462 0.00588434 0.0125939 0.325583 0.197759 0.0684059 -0.188265 0.00538077 0.137732 0.048674 0.23727 0.543773 -0.0357778 -0.158507 0.111561 0.553498 0.0437876 -0.0397939 0.309423 0.0457111 0.207973 -0.02755 0.422803 -0.0979007 0.318189 0.125347 0.29275 -0.0237094 -0.36436 0.446299 0.458136 0.154452 0.0927794 0.0511084 0.0352465 -0.191197 -0.324362 -0.580464 -0.0699836 0.133612 -0.164616 0.226801 -0.0155446 0.160697 0.0270737 0.241103 -0.0484001 0.368013 -0.000164873 -0.204102 0.0274027 0.061531 -0.154934 -0.276103 -0.285607 -0.179071 -0.494469 0.0931063 -0.229458 -0.204787 0.362277 0.389615 0.522725 -0.00340298 -0.219347 -0.369608 0.119339 0.378647 0.27726 -0.274133 0.29298 -0.324133 0.0411504 0.0250456
80 0.00294038 0.587422 0.101453 0.0817331 -0.37484 0.20955 -0.0645089 0.257109 0.161552 -0.345957 -0.105957 -0.345943 -0.0570949 0.192346 0.00719227 0.401112 0.205996 0.19809 0.156936 -0.00851995 0.271819 0.121569 -0.115691 0.154536 0.00772205 0.438645 -0.0404295 0.0590775 -0.0865062 0.364029 -0.232046 -0.0114629 0.003444 0.285061 0.515048 -0.141058 0.020018 -0.0319492 -0.118754 0.0669219 -0.365457 0.245381 -0.117971 -0.268693 -0.116715 0.0050195 0.19004 -0.246547 0.325205 -0.192029 0.243873 -0.239448 0.0870146 0.141448 0.197748 -0.00354568 -0.0274192 0.284451 0.157288 0.0249422 -0.175562 0.0172883 0.152388 0.0672122 0.333224 0.445414 -0.0177341 -0.176179 0.0853921 0.515261 0.00351091 -0.0389112 0.288774 0.0487158 0.260825 -0.00277501 0.437766 -0.112227 0.362174 0.090266 0.332322 0.00399806 -0.363086 0.466185 0.430085 0.172329 0.135748 0.0491378 0.0414957 -0.160412 -0.251054 -0.537565 -0.0133849 0.161952 -0.148978 0.26334 0.00309967 0.128762 0.00479527 0.229794 -0.0703121 0.40483 0.0387686 -0.1819 0.119575 0.0914385 -0.0919611 -0.268656 -0.315343 -0.164789 -0.479625 0.160805 -0.240568 -0.171295 0.344285 0.464907 0.464836 0.0191589 -0.208662 -0.329429 0.103204 0.365827 0.262811 -0.263326 0.272584 -0.308197 0.0188895 -0.00342111
78 0.0149816 0.580325 0.0829657 0.0782358 -0.307335 0.215765 -0.0797093 0.265347 0.189287 -0.333388 -0.0765458 -0.348334 -0.0656649 0.17678 -0.0361663 0.448805 0.192326 0.163183 0.114687 -0.0275878 0.304209 0.0894436 -0.0744918 0.144622 -0.00480453 0.489898 -0.0172553 0.0221344 -0.145171 0.379421 -0.262371 4.44157e-05 -0.00444205 0.271384 0.505045 -0.105303 0.0629887 -0.0362537 -0.13127 0.0416865 -0.361529 0.263472 -0.127115 -0.306894 -0.109757 -0.0597953 0.191318 -0.230758 0.311492 -0.210702 0.259059 -0.251879 0.0826248 0.101959 0.184977 -0.0132938 -0.0755287 0.244499 0.159965 0.0139643 -0.177439 0.0117533 0.154717 0.0709124 0.378697 0.398736 0.00692543 -0.182624 0.139542 0.488524 -0.0425018 -0.0793106 0.274628 0.0473157 0.290668 0.013231 0.416095 -0.166233 0.42707 0.0359684 0.351324 0.00778734 -0.375556 0.489529 0.443761 0.165135 0.17604 -0.028048 0.0800358 -0.148786 -0.217531 -0.51494 0.00588314 0.164561 -0.164178 0.374613 0.0217044 0.119034 -0.00363841 0.212157 -0.0477439 0.441417 0.0628861 -0.173072 0.190056 0.0832751 -0.0018971 -0.239573 -0.314255 -0.16956 -0.471414 0.185309 -0.242343 -0.148837 0.396618 0.513249 0.465636 0.0743039 -0.214102 -0.296132 0.107156 0.3776 0.201416 -0.255944 0.243296 -0.307959 0.0253954 -0.0137379
60 0.0241754 0.407432 0.0555533 0.047547 -0.192437 0.198662 -0.116672 0.243377 0.287741 -0.26982 -0.068607 -0.292914 -0.0603144 0.0967199 -0.0654613 0.46015 0.142122 0.0613453 -0.0490413 -0.0414104 0.334898 0.024272 -0.0290231 0.139319 -0.0667107 0.469183 0.0325519 -0.0944265 -0.22213 0.333226 -0.228336 -0.0144702 0.026713 0.211272 0.383679 -0.0359305 0.122334 -0.0191062 -0.0898116 -0.0293614 -0.23585 0.19879 -0.0937636 -0.325192 -0.0325248 -0.0988164 0.131778 -0.168809 0.224205 -0.217246 0.177617 -0.166467 0.105173 0.0420507 0.181307 -0.0141298 -0.170441 0.136672 0.107382 0.0122407 -0.211183 0.00708075 0.152771 0.0414343 0.426164 0.281507 0.0366326 -0.138468 0.169814 0.338409 -0.121218 -0.14557 0.200417 0.0204718 0.329367 0.0327589 0.320271 -0.216386 0.492342 -0.033956 0.354811 0.0173592 -0.337298 0.410616 0.418653 0.182306 0.228326 -0.108955 0.0947773 -0.149781 -0.0717503 -0.354153 0.0302197 0.135124 -0.157534 0.413807 0.0499024 0.0435247 -0.0145959 0.112586 -0.00960045 0.413717 0.0448968 -0.0753173 0.300897 0.0586852 0.200787 -0.185602 -0.325851 -0.172322 -0.348074 0.166722 -0.245796 -0.0748193 0.386818 0.51335 0.399979 0.118712 -0.210436 -0.215971 0.0558337 0.332932 0.120541 -0.207339 0.152062 -0.233364 0.0509189 -0.0501878
35 0.0237982 0.23623 0.022406 -0.0586745 -0.164159 0.196175 -0.27507 0.285589 0.467234 -0.348261 -0.100589 -0.235889 -0.0680294 0.0934575 -0.0201572 0.58516 0.0584279 0.0448023 -0.25132 -0.0119912 0.482295 0.00419372 -0.0389987 0.1807 -0.199032 0.568117 0.00263984 -0.35727 -0.43426 0.347998 -0.167386 -0.0170182 0.0758203 0.250202 0.373559 -0.0423808 0.183274 0.0115963 -0.0693241 -0.207026 -0.0894941 0.267375 -0.0979215 -0.503338 -0.0329686 -0.166317 0.0528644 -0.157559 0.278492 -0.310607 0.241753 -0.179238 0.297072 0.0430678 0.20616 0.0182902 -0.350195 0.177522 0.182726 0.17673 -0.314617 -0.013098 0.147278 -0.0604386 0.544973 0.308917 0.060838 -0.080992 0.36464 0.231323 -0.357941 -0.269527 0.110305 -0.0845585 0.480878 0.0250258 0.268235 -0.352241 0.694886 -0.106012 0.418697 -0.0105357 -0.426998 0.362302 0.54816 0.203351 0.363075 -0.328049 0.11435 -0.230158 0.0814856 -0.214913 -0.139683 0.110243 -0.174885 0.489854 0.0915578 0.0892647 0.00440862 0.0959413 0.0652291 0.476292 -0.0713706 0.0970153 0.521947 0.0394096 0.480925 -0.212192 -0.494995 -0.171129 -0.215196 0.12961 -0.342162 -0.0782063 0.442185 0.569139 0.508936 0.28239 -0.355719 -0.211884 -0.0988934 0.378381 0.123393 -0.165121 0.149933 -0.21824 0.0300364 -0.0914303
10 0.0915037 0.352186 0.109743 0.00992982 -0.125101 0.355464 -0.245644 0.315178 0.304771 -0.297894 0.0502366 -0.24041 -0.167426 0.141084 -0.132234 0.610506 -0.0169683 0.0181671 -0.240553 -0.0807304 0.387491 0.0179464 0.188869 0.0664041 -0.198566 0.531788 -0.0186506 -0.252292 -0.332428 0.258851 -0.439888 0.0795794 -0.0739197 0.183688 0.472816 0.0759625 0.326833 -0.215606 0.0267958 -0.0194373 -0.0373179 0.370964 -0.107066 -0.497073 -0.0570883 -0.221039 0.0912436 -0.131846 0.196932 -0.233949 0.158603 -0.174829 0.225272 -0.0921145 0.278695 -0.0207166 -0.275748 0.17343 0.13333 0.00174778 -0.153384 0.00607544 0.140549 -0.0333577 0.629263 0.203598 0.0403767 -0.117864 0.282149 0.271294 -0.201514 -0.294912 0.216201 0.122646 0.579377 0.110351 0.210389 -0.347954 0.662328 -0.147754 0.435104 -0.0248751 -0.338679 0.480566 0.58951 0.133294 0.340729 -0.227731 0.0982489 -0.270487 -0.00452286 -0.235875 -0.064705 0.03607 -0.116667 0.460313 0.0819444 0.116329 -0.178425 0.11098 0.15823 0.477362 -0.0425903 0.069097 0.475206 0.0980171 0.435017 -0.174911 -0.457395 -0.215243 -0.305843 0.174834 -0.273643 0.0198953 0.474415 0.685214 0.424492 0.223914 -0.375006 -0.0242266 -0.0327205 0.453976 -0.0630101 -0.230787 0.0925108 -0.191108 0.109002 -0.274006
22 0.0148002 0.322235 0.0209242 0.0201507 -0.13887 0.175959 -0.157074 0.211519 0.239364 -0.204267 -0.0157395 -0.231496 -0.0634934 0.0749924 -0.0215936 0.385623 0.0788602 0.0386415 -0.0827951 -0.0358393 0.259403 -0.00836966 0.00812408 0.105837 -0.0945961 0.398299 -0.00501662 -0.137007 -0.231219 0.279091 -0.19923 -0.0343025 -0.00521818 0.151658 0.330128 -0.0261928 0.161627 -0.0377356 -0.0860912 -0.0517882 -0.189628 0.179936 -0.0817876 -0.292383 -0.0357054 -0.103873 0.101052 -0.125792 0.208335 -0.192111 0.144561 -0.143694 0.0836464 0.0370089 0.133971 -0.0195849 -0.164786 0.126454 0.103116 0.0208932 -0.13368 0.0055602 0.123402 0.0272016 0.412451 0.184717 0.0423358 -0.127761 0.169062 0.247714 -0.147688 -0.129275 0.14321 0.0127654 0.334458 0.0453495 0.266916 -0.209367 0.430163 -0.057854 0.315108 0.0144228 -0.280775 0.348101 0.351657 0.130127 0.220052 -0.128305 0.0811562 -0.112088 -0.0174713 -0.253536 0.000743258 0.123971 -0.0964836 0.347979 0.0587333 0.0724111 -0.0284304 0.115127 -0.00286341 0.368356 0.0268466 -0.0198624 0.314234 0.075335 0.193388 -0.157 -0.304667 -0.129988 -0.269935 0.170078 -0.216786 -0.0627287 0.308831 0.470807 0.318271 0.14822 -0.19322 -0.136692 -0.00143744 0.279525 0.0742771 -0.170493 0.139948 -0.19386 -0.000243702 -0.0768299
4 -0.0119962 0.586473 0.0775672 0.069967 -0.351931 0.171041 -0.126305 0.236439 0.170339 -0.353726 -0.127313 -0.316894 -0.0743693 0.223342 0.0426916 0.390013 0.159682 0.198107 0.141219 0.00101565 0.290329 0.10925 -0.134706 0.161337 -0.0381978 0.426352 -0.0557105 0.00186378 -0.101574 0.352922 -0.219181 -0.0132817 0.0116358 0.261383 0.515698 -0.178268 0.012756 0.0013449 -0.126503 -0.000757137 -0.334032 0.287389 -0.137165 -0.306574 -0.160521 -0.0361152 0.169115 -0.227835 0.363033 -0.193256 0.25989 -0.231476 0.134495 0.143012 0.190691 0.027818 -0.067597 0.298319 0.174697 0.0950412 -0.14737 -0.000974295 0.125593 0.0222886 0.320407 0.459094 -0.0285825 -0.177562 0.151405 0.503469 -0.0439774 -0.036779 0.279568 0.0007625 0.273234 -0.0213256 0.407026 -0.123694 0.370652 0.100717 0.317448 0.00828893 -0.356919 0.432938 0.454966 0.109333 0.17529 -0.0119343 0.013396 -0.180313 -0.217888 -0.51561 -0.0654347 0.13173 -0.174466 0.256971 0.046465 0.158742 0.0228558 0.255499 -0.0578189 0.398055 0.0406051 -0.180845 0.139428 0.0723604 -0.0430889 -0.264048 -0.339318 -0.13425 -0.451156 0.141329 -0.25252 -0.171942 0.336276 0.444181 0.466949 0.0624981 -0.261116 -0.327031 0.0728301 0.361365 0.258141 -0.260423 0.268768 -0.304416 -0.0367879 0.00877138
14 0.0165147 0.59004 0.139818 0.0714934 -0.435016 0.194252 -0.0460325 0.256272 0.0998707 -0.411399 -0.14412 -0.309259 -0.0803479 0.263299 0.0216148 0.400178 0.20935 0.275884 0.237895 0.00933889 0.281209 0.181868 -0.160813 0.155306 0.0353675 0.433869 -0.0873188 0.0961743 -0.0567496 0.33882 -0.215136 0.0505251 0.00977045 0.335366 0.537136 -0.177805 -0.0529557 -0.0368158 -0.0822522 0.055053 -0.342606 0.325044 -0.13542 -0.292983 -0.185144 0.0137144 0.165504 -0.278121 0.363489 -0.163565 0.326193 -0.306303 0.146561 0.151448 0.228505 0.00436659 0.0220515 0.346987 0.201008 0.0877815 -0.167459 0.00875003 0.133755 0.0348329 0.244233 0.546094 -0.0437883 -0.156895 0.107474 0.5621 0.0263692 -0.0440954 0.312468 0.0348075 0.240663 -0.020357 0.417059 -0.096411 0.317777 0.130707 0.305044 -0.0251217 -0.36499 0.446117 0.475665 0.136227 0.118652 0.0535923 0.0186134 -0.216224 -0.321992 -0.576375 -0.0881284 0.118715 -0.151963 0.193108 0.00658074 0.185664 0.0163138 0.252402 -0.0417651 0.372014 -0.0130016 -0.189635 0.0408513 0.0768203 -0.159363 -0.30117 -0.320204 -0.179452 -0.484766 0.0886839 -0.24092 -0.209244 0.339542 0.395704 0.526838 -0.00361364 -0.24021 -0.356145 0.0810359 0.384323 0.285323 -0.284961 0.317682 -0.321945 0.0235846 0.00843277
79 0.00233337 0.604761 0.0836963 0.0834522 -0.356774 0.185842 -0.105006 0.25505 0.192399 -0.367496 -0.137873 -0.333631 -0.0752377 0.214404 0.0102058 0.428999 0.185147 0.191131 0.144889 -0.0120599 0.322256 0.110645 -0.134264 0.169102 -0.0247921 0.469029 -0.0281953 0.00480574 -0.117499 0.379702 -0.227747 -0.00400845 0.019694 0.276734 0.514907 -0.167756 0.0182947 0.0035519 -0.125473 0.00175258 -0.349754 0.285217 -0.130949 -0.325139 -0.143098 -0.038617 0.173471 -0.244502 0.350327 -0.20888 0.267608 -0.234158 0.131169 0.135933 0.204691 0.0188749 -0.0725183 0.283622 0.176246 0.0789083 -0.184469 0.00418694 0.137466 0.0266627 0.339083 0.472558 -0.0224193 -0.184174 0.151008 0.516352 -0.0449261 -0.0625691 0.284617 0.00464305 0.273915 -0.0179577 0.414718 -0.131408 0.406307 0.088477 0.339808 0.000444823 -0.386865 0.459932 0.475862 0.145128 0.188807 -0.018609 0.0401137 -0.191386 -0.231145 -0.534292 -0.0312456 0.147332 -0.195103 0.302918 0.0484377 0.13304 0.0148231 0.239722 -0.0565031 0.426242 0.0428022 -0.193231 0.165348 0.0677271 -0.0164942 -0.261152 -0.339564 -0.155807 -0.478357 0.143723 -0.268733 -0.164846 0.372698 0.466853 0.49825 0.0545464 -0.257523 -0.340663 0.087716 0.387662 0.261635 -0.268923 0.263497 -0.319713 -0.00493593 0.0148239
55 0.0367692 0.548433 0.17151 0.0396978 -0.463213 0.156918 0.0747328 0.239651 -0.0235297 -0.425519 -0.118998 -0.268787 -0.0567215 0.288757 0.0182265 0.335113 0.261505 0.361262 0.379329 0.0235233 0.229082 0.259314 -0.207787 0.133811 0.162441 0.382466 -0.103393 0.215694 0.0182333 0.29354 -0.134284 0.0995731 -0.0153925 0.394389 0.505761 -0.183175 -0.145189 -0.0467835 -0.0712254 0.100834 -0.369859 0.315952 -0.123202 -0.22333 -0.23164 0.0629972 0.168635 -0.321084 0.340423 -0.0991036 0.394878 -0.385989 0.113402 0.166035 0.179925 -0.0116841 0.115721 0.367218 0.241681 0.093026 -0.155872 -0.0084601 0.109499 0.0574288 0.0912159 0.596656 -0.0453732 -0.133093 0.0928331 0.557307 0.108214 -0.0203183 0.304288 0.0510091 0.107224 -0.0578618 0.398473 -0.0506303 0.195826 0.167895 0.226589 -0.0670681 -0.335406 0.385629 0.399356 0.126638 0.00240798 0.100887 0.0209805 -0.170946 -0.407465 -0.608332 -0.12756 0.109043 -0.100875 0.140908 -0.0591064 0.20661 0.0501135 0.237873 -0.0346636 0.275378 -0.0327254 -0.194467 -0.115237 0.0486654 -0.320744 -0.285649 -0.22185 -0.171568 -0.468603 0.011185 -0.185966 -0.258742 0.308389 0.259385 0.528239 -0.031163 -0.166477 -0.409051 0.130095 0.354381 0.284342 -0.264177 0.355267 -0.325174 0.0557682 0.0699757
61 0.204603 0.371629 0.287711 0.0104544 -0.518642 0.118051 0.164297 0.28562 -0.152037 -0.496249 -0.142631 -0.110244 -0.114501 0.372697 0.0347181 0.318694 0.253124 0.408469 0.471776 -0.0210358 0.263319 0.430597 -0.24761 0.107764 0.239571 0.28885 -0.0597056 0.283175 0.0681175 0.199845 -0.0559431 0.211416 -0.0766444 0.456011 0.459314 -0.221482 -0.163289 -0.0807202 0.0480385 0.0641531 -0.229905 0.322033 -0.0865842 -0.324352 -0.219228 0.0470282 0.0804451 -0.352467 0.291017 -0.00650284 0.387065 -0.299894 0.209107 0.0557826 0.227715 -0.0143073 0.153637 0.456061 0.298817 0.132994 -0.148127 -0.0211494 0.0270329 0.0589645 -0.107721 0.666096 -0.0102779 -0.113681 0.154972 0.499867 0.167272 -0.0688169 0.265709 0.011446 -0.0171304 -0.198052 0.232608 0.0332026 0.0650901 0.244863 0.142964 -0.12962 -0.25889 0.265242 0.386423 0.0264399 -0.0260914 0.114282 -0.00761466 -0.240123 -0.417028 -0.512407 -0.257206 -0.0825206 -0.13111 -0.00360847 -0.0526034 0.242192 -0.0283484 0.204842 0.105697 0.116131 -0.139753 -0.081315 -0.182472 -0.0451794 -0.308802 -0.311607 -0.097721 -0.198849 -0.380099 -0.194482 -0.163323 -0.164741 0.336455 0.0672183 0.549811 -0.0122725 -0.227562 -0.388992 0.227609 0.321976 0.171929 -0.227499 0.259338 -0.287227 0.133388 0.0698183
72 0.231729 0.219521 0.326335 -0.018325 -0.551527 0.126714 0.0863455 0.263593 -0.138081 -0.519751 -0.176269 0.00392805 -0.156835 0.431304 0.0994496 0.272828 0.109872 0.39126 0.349017 0.0113982 0.291073 0.484205 -0.234982 0.110225 0.128862 0.161723 -0.0877039 0.185209 0.12769 0.0599401 -0.0707692 0.238686 -0.0668399 0.441933 0.463856 -0.266153 -0.152413 -0.122569 0.187943 0.0140371 0.0274908 0.38268 -0.0677329 -0.396491 -0.219274 0.0725741 -0.0328163 -0.306523 0.287709 0.0594283 0.312843 -0.177761 0.395789 0.0129311 0.315286 0.061835 0.0866112 0.541056 0.271169 0.232836 -0.112012 -0.0453153 -0.00461018 -0.0840076 -0.164655 0.710889 -0.0684878 -0.0471761 0.192586 0.411317 0.165651 -0.108349 0.264679 -0.0173148 0.0234238 -0.237119 0.0823335 0.0779641 0.0228916 0.315501 0.0689034 -0.149572 -0.187098 0.130895 0.476163 -0.0417604 0.00144296 0.0970724 -0.14736 -0.386622 -0.318414 -0.371501 -0.393962 -0.230176 -0.137206 -0.253682 -0.0279441 0.26686 -0.0813076 0.194053 0.204089 0.00156105 -0.281907 0.0306146 -0.1956 -0.098264 -0.186581 -0.3172 -0.149587 -0.168163 -0.26051 -0.306412 -0.180866 -0.101984 0.269314 -0.0121016 0.515322 -0.0356262 -0.34711 -0.318099 0.133091 0.309144 0.164959 -0.210035 0.182139 -0.220118 0.13942 -0.0126674
11 0.17227 0.1802 0.32258 -0.042529 -0.567432 0.0427106 -0.0217329 0.242878 -0.079901 -0.56795 -0.258373 0.00492867 -0.145782 0.481164 0.188962 0.246237 0.0701424 0.401332 0.318925 0.0630696 0.298467 0.48804 -0.337115 0.150828 0.0267608 0.0773708 -0.0991461 0.123762 0.146657 0.057852 -0.000295708 0.176265 -0.0217393 0.407844 0.486502 -0.305329 -0.177908 -0.0494797 0.158541 -0.0293193 0.0422167 0.375693 -0.127664 -0.429642 -0.240316 0.0838395 -0.0328312 -0.305701 0.340498 0.0496354 0.30137 -0.0947965 0.484663 0.0352389 0.242763 0.169584 0.0710846 0.593335 0.323736 0.371604 -0.120861 -0.11546 -0.0213254 -0.137009 -0.182925 0.784029 -0.0469448 0.000565996 0.321408 0.38927 0.117462 -0.0231094 0.245468 -0.0632506 0.038964 -0.303369 0.10692 0.0682115 0.0423605 0.380809 0.06062 -0.121574 -0.185555 0.068677 0.509227 -0.116975 0.0265897 0.0626183 -0.177145 -0.421062 -0.243338 -0.386092 -0.589758 -0.270228 -0.17886 -0.297731 0.0047975 0.345086 0.00899804 0.25831 0.231117 -0.0709913 -0.305439 0.0840429 -0.198991 -0.104901 -0.170228 -0.375489 -0.235969 -0.0720417 -0.181824 -0.376184 -0.157561 -0.0900259 0.217705 -0.0122461 0.580492 0.0748708 -0.44421 -0.405745 0.0859738 0.283727 0.249717 -0.13476 0.160095 -0.18426 0.0403779 -0.00343511
62 0.0776518 0.122557 0.407777 -0.0926634 -0.519077 0.0047121 -0.06445 0.233615 -0.0227301 -0.580642 -0.242362 -0.0594632 -0.156925 0.535719 0.164761 0.262376 0.186776 0.460903 0.28952 0.163909 0.275043 0.468898 -0.3695 0.179741 -0.0229592 0.0361103 -0.155579 0.143809 0.15536 0.0162544 -0.0582297 0.1588 0.00236188 0.45215 0.515844 -0.255503 -0.198032 -0.0457201 0.215041 -0.0355037 0.0623107 0.42986 -0.200754 -0.412832 -0.268347 0.137151 -0.00918551 -0.301327 0.43215 0.174671 0.345172 -0.211415 0.481854 0.059245 0.255745 0.223666 0.0952273 0.578313 0.222553 0.356452 -0.0150607 -0.176336 0.0507464 -0.128783 -0.128824 0.811297 -0.0775559 0.128455 0.303905 0.433099 0.186205 0.0250239 0.383479 -0.0324897 0.115946 -0.188391 0.19891 -0.0333634 0.102561 0.406307 0.0887078 -0.0548506 -0.100152 0.0566972 0.59262 -0.121921 0.00169953 0.170385 -0.296619 -0.548437 -0.149324 -0.481718 -0.652966 -0.279816 -0.0501699 -0.39079 -0.00268465 0.386351 0.0113362 0.185302 0.257746 -0.100039 -0.260017 0.183799 -0.303908 -0.0710652 -0.213976 -0.494746 -0.370443 -0.111659 -0.156652 -0.377164 -0.126068 -0.19982 0.237792 0.167803 0.560326 0.0734783 -0.368003 -0.485663 -0.0527649 0.26375 0.236376 -0.209771 0.247951 -0.141644 -0.0340437 -0.0650328
76 0.100984 0.227482 0.2869 -0.0968941 -0.657393 0.0859491 -0.0243658 0.265072 -0.0352341 -0.531685 -0.103032 -0.0293237 -0.063203 0.429138 0.281707 0.161055 0.0428944 0.392174 0.25128 0.0913434 0.305745 0.503033 -0.313885 0.239951 0.0459464 0.034849 -0.113571 0.113729 0.223138 0.0417045 -0.00612013 0.0642529 -0.0634695 0.476646 0.645191 -0.388925 -0.0902022 -0.128329 0.08827 0.0556969 0.0474986 0.317889 -0.0788868 -0.310054 -0.23778 0.226207 -0.0437277 -0.334756 0.461444 0.0846543 0.23805 -0.0853959 0.555108 0.165921 0.278375 0.207526 -0.0202922 0.739035 0.336484 0.31496 -0.0928104 -0.151426 0.0565367 -0.179104 -0.137777 0.851729 -0.091387 -0.0796181 0.30947 0.342289 0.179666 -0.0531174 0.259034 -0.000871861 -0.0116264 -0.328384 0.121402 0.12434 0.0629042 0.450066 -0.0354457 -0.117943 -0.203435 0.0547044 0.507769 0.00624444 -0.0750614 0.110352 -0.321862 -0.351541 -0.159761 -0.43094 -0.626456 -0.150402 -0.0733083 -0.453067 -0.116545 0.337513 0.022163 0.260591 0.254809 -0.0421114 -0.360616 0.0994896 -0.26667 -0.0997108 -0.204155 -0.341949 -0.303815 5.90501e-06 -0.233863 -0.34561 -0.219711 -0.122335 0.208227 0.0628494 0.495075 0.0271108 -0.369345 -0.535092 0.117687 0.332647 0.368584 -0.156684 0.278222 -0.266057 -0.000830178 0.00191628
42 0.0831406 0.194609 0.321329 -0.0568758 -0.567685 0.100199 -0.0299866 0.20978 -0.0198865 -0.543547 -0.216005 -0.0264168 -0.128415 0.470616 0.153877 0.230437 0.0695097 0.412434 0.237332 0.121143 0.291436 0.444193 -0.294777 0.172706 -0.00454033 0.0615395 -0.140572 0.105418 0.200831 -0.0124632 -0.0894926 0.16492 0.00298653 0.432202 0.531179 -0.282841 -0.196121 -0.0915959 0.207042 0.0166155 0.128089 0.432939 -0.126798 -0.347247 -0.268167 0.166448 -0.0453959 -0.288954 0.373935 0.099877 0.29772 -0.175207 0.526263 0.0960703 0.325348 0.201231 0.0430735 0.594074 0.235346 0.339185 -0.0825003 -0.139752 0.0420105 -0.222417 -0.145553 0.811812 -0.137204 0.0457598 0.229135 0.39036 0.16962 -0.0597361 0.322926 -0.00885886 0.0895024 -0.19944 0.115289 0.0464393 0.0635276 0.381561 0.0331461 -0.117398 -0.1721 0.0625947 0.582622 -0.0304837 -0.0130066 0.130385 -0.285249 -0.491746 -0.220619 -0.423018 -0.543761 -0.229267 -0.0971287 -0.426569 -0.0364534 0.305385 0.00597524 0.19191 0.230392 -0.0503584 -0.331519 0.0801812 -0.283955 -0.0842645 -0.173648 -0.352933 -0.32782 -0.0954724 -0.19929 -0.336524 -0.175093 -0.173491 0.188485 0.0630819 0.52761 -0.041336 -0.380453 -0.433175 -0.00817618 0.316497 0.306358 -0.213888 0.234779 -0.172792 0.0565331 -0.0477054
50 0.203888 0.207292 0.277358 0.052185 -0.563304 -0.0140782 -0.0837715 0.190213 -0.114678 -0.547937 -0.364219 0.0502821 -0.1913 0.501084 0.245726 0.178398 -0.0159563 0.352214 0.335099 0.0194624 0.305162 0.485477 -0.351982 0.137022 -0.0381653 0.0510727 -0.0615608 0.102155 0.175591 0.0792563 -0.00831507 0.175716 0.0161153 0.326371 0.456059 -0.363967 -0.180313 0.0127876 0.168662 -0.0810662 0.0370864 0.377929 -0.160714 -0.484319 -0.2107 0.0143495 -0.0251534 -0.253409 0.322581 0.042326 0.252367 0.059202 0.503062 -0.0111161 0.214178 0.199878 0.0930101 0.602202 0.306639 0.423103 -0.0899052 -0.0691 -0.0890086 -0.129576 -0.232342 0.75813 -0.0399992 -0.0469964 0.33962 0.408928 0.0893048 0.0406641 0.23606 -0.145231 0.0373598 -0.365801 0.0710302 0.156713 -0.0223739 0.432068 0.0547771 -0.104679 -0.137725 0.0624218 0.476196 -0.240299 0.095953 0.0404103 -0.180303 -0.407781 -0.257322 -0.318432 -0.575796 -0.354387 -0.287662 -0.293009 0.106116 0.327071 -0.00418993 0.343412 0.179137 -0.0906563 -0.293278 -0.00799343 -0.157059 -0.115345 -0.147708 -0.377916 -0.160807 -0.0474446 -0.165398 -0.353403 -0.140667 -0.00763219 0.197147 -0.120857 0.555914 0.0640307 -0.560842 -0.319087 0.0933996 0.238803 0.244735 -0.112096 0.0535226 -0.165984 -0.0143113 0.0191613
52 0.302505 0.214147 0.270793 0.0373436 -0.603298 0.107075 -0.116203 0.260921 -0.121004 -0.527029 -0.340107 0.122688 -0.241117 0.460675 0.252986 0.247156 -0.111801 0.282675 0.250568 -0.0550618 0.30872 0.461583 -0.240263 0.0778435 -0.0816818 0.0843732 -0.0628166 -0.0148957 0.080795 0.0412657 -0.037911 0.207382 -0.0486095 0.276041 0.40783 -0.399366 -0.0738767 -0.0590333 0.202975 -0.154139 0.152702 0.365065 -0.0422443 -0.580293 -0.199179 -0.0411394 -0.127107 -0.235627 0.25509 -0.0627953 0.163448 0.132657 0.510313 -0.0422159 0.350167 0.108234 -0.00601729 0.5699 0.299018 0.400669 -0.114303 -0.0126148 -0.131618 -0.178118 -0.154036 0.642573 -0.0539225 -0.125144 0.273775 0.380313 0.00638653 -0.0740249 0.151325 -0.160274 0.106702 -0.380641 -0.033118 0.167344 -0.0173662 0.374352 0.0954122 -0.143181 -0.195246 0.0758272 0.51397 -0.25069 0.204112 -0.0318094 -0.143522 -0.450734 -0.252812 -0.172422 -0.468677 -0.372333 -0.336837 -0.344537 0.155196 0.314141 -0.142946 0.351356 0.223128 -0.0155645 -0.317839 0.0213758 0.0339662 -0.123457 0.00534773 -0.327 -0.156354 -0.0718023 -0.190595 -0.347632 -0.247165 0.0931653 0.178037 -0.125685 0.549554 0.0543304 -0.619985 -0.154387 0.11889 0.277756 0.169363 -0.127664 -0.0116742 -0.178265 0.0621962 -0.0470371
57 0.328612 0.313577 0.272699 0.033516 -0.639088 0.179315 -0.130556 0.324415 -0.133944 -0.472212 -0.407839 0.125391 -0.271835 0.396387 0.26613 0.30285 -0.0970476 0.214305 0.2537 -0.0857553 0.1936 0.368225 -0.217902 -0.00130941 -0.128374 0.035381 -0.048592 -0.0892759 0.0196992 0.0402248 0.0264941 0.149623 -0.110051 0.138369 0.279118 -0.444405 -0.045672 -0.0489291 0.143081 -0.23993 0.157716 0.231821 0.0754547 -0.573696 -0.214168 -0.0388232 -0.198131 -0.223048 0.160295 -0.184121 0.00948586 0.221154 0.372479 0.0114482 0.441552 0.0375438 -0.027545 0.42292 0.270092 0.383151 -0.130927 -0.0144987 -0.164907 -0.223763 -0.0900463 0.489804 -0.0646625 -0.176725 0.103364 0.408138 -0.0490537 -0.0802296 0.0441981 -0.195078 0.130012 -0.405497 -0.0512068 0.185495 -0.083078 0.348625 0.185059 -0.127788 -0.269691 0.0923819 0.506857 -0.261579 0.313748 0.00146065 -0.0819701 -0.493602 -0.25913 -0.131606 -0.287097 -0.342735 -0.401051 -0.443285 0.23862 0.291991 -0.218979 0.371422 0.210238 0.0306615 -0.201512 0.0211826 0.183986 -0.0870329 0.046738 -0.303052 -0.165662 -0.0521976 -0.252797 -0.330302 -0.336397 0.162371 0.0547954 -0.107385 0.552039 0.0412335 -0.580379 -0.0686915 0.193854 0.257792 0.16418 -0.121932 -0.0723953 -0.163095 0.103949 -0.067407
68 0.384408 0.236169 0.277708 0.125249 -0.557819 0.150784 -0.130172 0.265118 -0.187699 -0.427791 -0.256337 0.160784 -0.33116 0.447212 0.266198 0.188562 -0.142403 0.214221 0.19934 -0.137405 0.305493 0.45847 -0.102986 0.0434048 -0.0880681 0.132205 -0.0556137 -0.0215763 0.0586219 0.0445408 -0.194055 0.236405 -0.100652 0.258673 0.444502 -0.439421 0.068127 -0.131092 0.269577 -0.173797 0.172491 0.406724 -0.0189731 -0.637181 -0.121106 -0.119966 -0.147441 -0.166886 0.282536 0.018369 0.0896124 0.196221 0.45781 -0.111875 0.43985 0.0383842 -0.046079 0.597475 0.163943 0.255451 0.0179564 0.0938013 -0.134015 -0.0892581 -0.0823264 0.522524 -0.0811433 -0.222883 0.16936 0.408136 0.0434585 -0.112075 0.237252 -0.170493 0.149906 -0.331245 -0.0871064 0.240616 -0.0197166 0.374999 0.109049 -0.124549 -0.0717993 0.156739 0.493854 -0.307958 0.269886 0.0168789 -0.234545 -0.46592 -0.229611 -0.0765075 -0.290734 -0.420479 -0.304417 -0.383062 0.219684 0.250141 -0.314273 0.331717 0.182751 0.0757918 -0.28155 -0.0291963 0.089473 -0.117756 0.0552748 -0.340924 -0.0793318 -0.167996 -0.244378 -0.221178 -0.285456 0.143864 0.25559 -0.0884759 0.359806 -0.0570904 -0.639579 0.0425178 0.101272 0.267235 0.00982014 -0.245146 -0.0423654 -0.207846 0.0442046 -0.105629
38 0.318233 0.251161 0.267618 0.113415 -0.58965 0.064888 -0.180428 0.308525 -0.119893 -0.457514 -0.347314 0.0576885 -0.240872 0.404416 0.353159 0.219083 -0.0618973 0.157384 0.219445 -0.0910457 0.240913 0.439531 -0.229654 0.0851006 -0.1434 0.0706594 -0.00360818 0.00778059 0.0659481 0.161829 -0.0292951 0.109055 -0.0822892 0.223473 0.422187 -0.441492 0.0834163 -0.020521 0.118447 -0.192441 -0.0105673 0.217551 -0.0218167 -0.634015 -0.0530649 -0.0747816 -0.0499934 -0.185131 0.248323 -0.106629 0.0292098 0.309905 0.36232 -0.075789 0.277107 0.0906349 -0.0211498 0.568374 0.232001 0.295417 -0.0527206 0.0368705 -0.119905 0.0111549 -0.0626333 0.494073 0.0335844 -0.18888 0.21866 0.410333 0.0312752 0.0775277 0.156561 -0.216675 0.118689 -0.419404 0.0821661 0.205137 -0.0321459 0.418896 0.168446 -0.0335329 -0.121844 0.143464 0.392727 -0.332697 0.248887 0.0414913 -0.154111 -0.391873 -0.164168 -0.138102 -0.406251 -0.366346 -0.330636 -0.306463 0.201437 0.33011 -0.183109 0.429898 0.132112 0.0325698 -0.21637 0.0320171 0.139933 -0.07688 -0.0255475 -0.420193 -0.0914338 -0.0602941 -0.222837 -0.220495 -0.235771 0.168791 0.190865 0.00760477 0.433662 0.127137 -0.638165 -0.0865498 0.204824 0.142011 0.0793687 -0.0806764 -0.110546 -0.202343 -0.0382283 -0.0722221
74 0.247355 0.263739 0.277187 0.0801613 -0.607871 0.0382579 -0.165719 0.241153 -0.0745648 -0.454012 -0.319587 0.0441983 -0.221127 0.417815 0.355806 0.13283 -0.0573259 0.225364 0.223634 -0.036828 0.268272 0.431904 -0.278232 0.12995 -0.132362 -0.00740983 -0.0248115 0.025202 0.131143 0.0860931 -0.0663282 0.0672762 -0.0337352 0.239976 0.467092 -0.477175 0.0138892 -0.010819 0.138496 -0.139321 0.0547254 0.245574 -0.0662766 -0.530392 -0.098623 0.0158738 -0.0930637 -0.206705 0.368733 0.0138832 0.0191383 0.286986 0.459546 0.0027879 0.330123 0.143742 -0.0224244 0.606697 0.185071 0.294875 -0.00812478 0.00102585 -0.0787866 -0.0732479 -0.0837305 0.586834 -0.0454875 -0.164871 0.215526 0.422917 0.0836491 0.0502753 0.229385 -0.171961 0.0735955 -0.387728 0.0615302 0.243712 -0.00334297 0.480149 0.0861791 -0.0354676 -0.0756016 0.110943 0.443751 -0.284631 0.210333 0.0974772 -0.274901 -0.423827 -0.12183 -0.203452 -0.438108 -0.333649 -0.303212 -0.443905 0.164984 0.298294 -0.158995 0.378081 0.169248 -0.010136 -0.20778 0.00173678 0.0104337 -0.107467 -0.0251446 -0.434532 -0.167497 -0.0192129 -0.228513 -0.264122 -0.256471 0.130459 0.192703 0.00199128 0.407837 0.043082 -0.566625 -0.196034 0.11441 0.202548 0.202523 -0.153761 -0.0148273 -0.202333 -0.0951917 -0.0466481
27 0.0376345 0.411901 0.0298793 0.010848 -0.227707 0.135702 -0.197936 0.236199 0.104427 -0.251262 -0.0271921 -0.200905 -0.0978217 0.165043 0.0877764 0.327238 0.0486792 0.114365 0.0575371 -0.0562263 0.224431 0.0702065 -0.0445445 0.103367 -0.0760453 0.36949 -0.0753663 -0.112008 -0.197815 0.299126 -0.163049 -0.027219 -0.0596361 0.16365 0.406478 -0.157667 0.149384 -0.0433364 -0.11947 -0.0865449 -0.258935 0.23182 -0.0907174 -0.334841 -0.134796 -0.11894 0.0971958 -0.157321 0.306241 -0.178592 0.20408 -0.161098 0.0962108 0.0835517 0.114341 -0.0195666 -0.121403 0.252475 0.186917 0.105733 -0.054668 0.00824505 0.0695754 0.0359972 0.334707 0.264274 0.0333261 -0.201906 0.215735 0.334207 -0.148299 -0.0643399 0.154759 -0.0342617 0.292596 -0.0347416 0.278025 -0.146489 0.347029 0.0201072 0.28393 0.00588733 -0.279591 0.344229 0.347589 0.00435579 0.215933 -0.13042 0.0383642 -0.112212 -0.0927387 -0.308046 -0.092791 0.0894762 -0.105463 0.262005 0.0912406 0.185003 -0.0435071 0.238553 -0.00168039 0.359852 0.0200317 -0.0604855 0.266165 0.0732861 0.0499615 -0.208993 -0.283281 -0.0813901 -0.318336 0.137276 -0.236966 -0.0798666 0.273993 0.399601 0.341547 0.184071 -0.267116 -0.151531 0.0257811 0.282517 0.0919009 -0.184703 0.204164 -0.251692 -0.0940466 -0.0435951
39 0.00171272 0.330446 -0.0358109 -0.0452189 -0.123478 0.135062 -0.235343 0.201279 0.0609263 -0.154775 0.0861565 -0.158906 -0.0802956 0.103336 0.0863647 0.265556 -0.000259109 0.0895007 0.00484428 -0.0535978 0.123388 0.00076532 0.0311284 0.0550126 -0.0758177 0.345793 -0.147437 -0.167227 -0.256403 0.243458 -0.144409 -0.0532125 -0.091711 0.10454 0.339724 -0.0987768 0.192267 -0.0853233 -0.142347 -0.0880055 -0.245044 0.222613 -0.0736273 -0.2492 -0.167766 -0.138535 0.0822407 -0.112324 0.288288 -0.164847 0.21771 -0.242226 0.0304145 0.116052 0.0460653 -0.0628916 -0.118513 0.191277 0.183683 0.0844095 0.0203648 0.0262295 0.068365 0.029394 0.369292 0.131601 0.0387835 -0.184454 0.212427 0.229056 -0.208426 -0.0768109 0.0773121 0.00376875 0.333971 0.0398802 0.250976 -0.194917 0.327641 -0.0780357 0.254307 -0.00523389 -0.240501 0.312976 0.264882 -0.00381343 0.1943 -0.183187 0.07496 -0.023146 -0.0585347 -0.227599 -0.0795525 0.137358 0.00659734 0.276716 0.078359 0.203689 -0.0377164 0.206466 -0.011896 0.358048 0.0245222 -0.0161461 0.290748 0.127787 0.0321218 -0.144777 -0.289031 -0.0539179 -0.256147 0.186893 -0.208073 -0.11044 0.190192 0.390541 0.2551 0.215291 -0.196531 -0.0654702 -0.0667257 0.25649 0.0420422 -0.153774 0.252029 -0.219253 -0.134027 -0.0726678
30 -0.0264108 0.266939 -0.0647642 -0.100261 -0.0867115 0.0761374 -0.241308 0.158686 -0.0470125 -0.0855758 0.137292 -0.0927014 -0.072562 0.103861 0.132329 0.141216 -0.0504278 0.114011 0.0513848 -0.0369073 0.0154021 -0.0182421 0.0378264 0.0168075 -0.0409374 0.267748 -0.229663 -0.174421 -0.253207 0.18615 -0.0623822 -0.0547739 -0.124873 0.0682602 0.272302 -0.122904 0.164749 -0.104685 -0.152835 -0.114424 -0.246107 0.202026 -0.0555913 -0.163517 -0.218559 -0.124569 0.0559911 -0.0855456 0.30047 -0.129038 0.259957 -0.301512 -0.0207081 0.164868 -0.032279 -0.0946726 -0.0679005 0.192451 0.21592 0.130604 0.0886418 0.0264991 0.0250369 0.0196858 0.283923 0.0780214 0.0262033 -0.178453 0.204703 0.160764 -0.230464 -0.0503433 0.0224455 -0.0219517 0.282435 0.0457565 0.198482 -0.157617 0.22498 -0.090339 0.170942 -0.0246169 -0.201382 0.239043 0.168213 -0.0546904 0.141681 -0.201503 0.0626239 0.0475317 -0.0770523 -0.155925 -0.129385 0.147931 0.0955663 0.206156 0.0602016 0.252676 -0.031796 0.216999 -0.0222184 0.301637 0.0101809 -0.00404064 0.222959 0.144496 -0.0791061 -0.107194 -0.24043 -0.000244452 -0.19266 0.173854 -0.163843 -0.156768 0.0845229 0.270834 0.185596 0.217861 -0.139988 -0.0191978 -0.128594 0.204641 0.0257631 -0.108012 0.318108 -0.196116 -0.200655 -0.0437326
26 0.0266365 0.369455 0.00584893 -0.0217665 -0.18292 0.124519 -0.201566 0.214586 0.0440774 -0.198194 0.0391204 -0.167509 -0.0952234 0.143773 0.0922597 0.27071 0.02042 0.107206 0.0642912 -0.0542722 0.148286 0.0503677 -0.00476852 0.0688749 -0.0617975 0.33934 -0.119409 -0.113689 -0.210708 0.26716 -0.147671 -0.0289274 -0.0904312 0.133132 0.367805 -0.137672 0.169695 -0.0708003 -0.130739 -0.0828323 -0.260054 0.228361 -0.0832167 -0.282963 -0.155211 -0.132341 0.0929825 -0.132548 0.299825 -0.156966 0.21667 -0.20261 0.0490674 0.0983007 0.0667652 -0.0414126 -0.0999048 0.233724 0.194 0.0938964 -0.00437286 0.0179403 0.0553352 0.0497876 0.317229 0.196435 0.0387611 -0.194399 0.215193 0.280484 -0.159834 -0.0526062 0.113671 -0.0189647 0.289049 -0.0119595 0.252098 -0.156229 0.304693 -0.0116805 0.249549 -0.00401309 -0.244828 0.321401 0.286725 -0.0232096 0.188446 -0.14736 0.0540587 -0.0557265 -0.0913655 -0.265162 -0.102834 0.0974805 -0.0367412 0.248597 0.0812585 0.210394 -0.0454562 0.231249 -0.00106681 0.339461 0.0259729 -0.0406612 0.250593 0.0974943 0.00141073 -0.179472 -0.260129 -0.064439 -0.289437 0.150888 -0.206022 -0.0943576 0.223945 0.371966 0.291926 0.203164 -0.229275 -0.10159 -0.00168937 0.260113 0.0469313 -0.157016 0.220765 -0.22838 -0.126575 -0.0516177
64 -0.0199188 0.307373 -0.0230417 -0.061555 -0.123455 0.131499 -0.243147 0.199888 0.0910987 -0.164985 0.0621424 -0.170436 -0.0627216 0.111455 0.0798694 0.282016 -0.0184865 0.0874876 -0.0252713 -0.0287979 0.142719 -0.00242192 0.026506 0.0633111 -0.0923099 0.357444 -0.160514 -0.179963 -0.267654 0.237669 -0.142269 -0.0314933 -0.0695628 0.12139 0.343612 -0.0844429 0.187293 -0.0827064 -0.12885 -0.0932196 -0.228634 0.235438 -0.0759748 -0.2664 -0.153667 -0.135496 0.0853971 -0.102589 0.288967 -0.182388 0.24603 -0.254502 0.0601814 0.104729 0.0350531 -0.048642 -0.132462 0.202388 0.18974 0.114602 -0.00792258 0.0139394 0.0777835 0.0240821 0.377724 0.148887 0.0411393 -0.14809 0.23878 0.218854 -0.211585 -0.0712002 0.0852861 -0.00455972 0.349417 0.0587412 0.258185 -0.217716 0.357463 -0.0848839 0.254214 -0.00197729 -0.25706 0.302533 0.286117 0.0182424 0.187341 -0.199993 0.0748578 -0.0332822 -0.0497338 -0.209332 -0.130448 0.138064 0.00913889 0.299808 0.0544579 0.222942 -0.0211316 0.204686 -0.00429605 0.354762 -0.00441908 0.00187005 0.281656 0.12165 0.061041 -0.151586 -0.303874 -0.055862 -0.231594 0.183168 -0.196461 -0.132087 0.20545 0.407903 0.27389 0.232658 -0.212357 -0.0744848 -0.0961816 0.246599 0.0474566 -0.137816 0.249096 -0.211113 -0.133219 -0.0806837
7 -0.0323653 0.746407 -0.0064998 0.0819951 -0.310984 0.130053 -0.110259 0.198672 0.0543895 -0.300224 -0.0800765 -0.317276 -0.0761676 0.214449 0.0399444 0.320187 0.155326 0.220634 0.27368 -0.0469353 0.218683 0.0577889 -0.116897 0.12792 0.0154422 0.463297 -0.0753429 0.0325766 -0.118779 0.400627 -0.220235 -0.0310799 -0.0361256 0.200964 0.51109 -0.235193 0.00218569 0.0283519 -0.22528 -0.0155952 -0.467697 0.298898 -0.144459 -0.233057 -0.252665 -0.0970165 0.198582 -0.226571 0.410799 -0.199654 0.297578 -0.306137 0.0310611 0.208923 0.128343 -0.0172769 -0.0295998 0.264946 0.201178 0.0819333 -0.0716619 0.0211571 0.0845679 0.0434167 0.290811 0.411755 -0.0442595 -0.292938 0.145082 0.553948 -0.0744684 -0.00682283 0.264597 -0.00831996 0.206862 -0.0273649 0.408826 -0.0856924 0.306358 0.0577398 0.294177 -0.00495851 -0.376853 0.485548 0.386974 0.0615771 0.159764 -0.0519467 0.0572317 -0.0644948 -0.311655 -0.580863 0.0485009 0.20392 -0.183131 0.338609 0.0872528 0.161081 0.0170295 0.317437 -0.128991 0.470673 0.154369 -0.33389 0.129995 0.0900448 -0.157969 -0.197191 -0.266973 -0.0936418 -0.540197 0.221375 -0.250421 -0.208629 0.310265 0.376079 0.418452 0.0409072 -0.200555 -0.304357 0.119358 0.391056 0.245271 -0.292489 0.34732 -0.355043 -0.112426 0.0900524
81 -0.034921 0.794286 -0.079873 0.0890424 -0.244667 0.0646516 -0.175834 0.154387 -0.00785987 -0.251574 -0.0620214 -0.261284 -0.110342 0.243592 0.0698267 0.237391 0.0605347 0.193428 0.296299 -0.0779339 0.193081 0.0263606 -0.0986467 0.103314 -0.0363756 0.418014 -0.0768478 -0.0249739 -0.124552 0.386597 -0.218059 -0.0437653 -0.0756216 0.102071 0.498343 -0.313956 0.0152241 0.0634354 -0.268689 -0.0937905 -0.454895 0.327535 -0.162101 -0.234116 -0.314909 -0.192148 0.165866 -0.188379 0.451117 -0.175752 0.27307 -0.259134 0.0471502 0.210084 0.0949454 0.0100146 -0.0772356 0.26372 0.216661 0.145746 0.0133194 0.00403983 0.0175483 -0.010582 0.246967 0.377116 -0.0607667 -0.363074 0.213719 0.528555 -0.125845 0.00271777 0.236102 -0.050925 0.165164 -0.0840746 0.316005 -0.0431921 0.259874 0.0584803 0.235626 -0.00893801 -0.356858 0.444154 0.367142 -0.0602195 0.202144 -0.14077 0.0328319 -0.0251627 -0.289607 -0.542685 0.0561371 0.172161 -0.238131 0.3267 0.173096 0.172882 -0.0022308 0.367065 -0.120271 0.46907 0.21884 -0.4028 0.156937 0.0521016 -0.122727 -0.140152 -0.232154 -0.0261641 -0.522807 0.2322 -0.247448 -0.179294 0.276931 0.292398 0.338853 0.0701099 -0.246326 -0.258645 0.133316 0.393142 0.193124 -0.301144 0.326618 -0.349467 -0.208119 0.132597
8 -0.085515 0.830423 -0.0513419 0.121618 -0.322317 0.102075 -0.0635158 0.129256 0.00997317 -0.245936 -0.106425 -0.317341 -0.0601975 0.20082 0.0440376 0.214469 0.184357 0.249622 0.348944 -0.0247546 0.146017 0.0260155 -0.150033 0.124437 0.048874 0.395332 -0.0798596 0.0913578 -0.0268081 0.384961 -0.198539 -0.0743219 -0.0174362 0.158432 0.477758 -0.288616 -0.0951613 0.0638316 -0.263391 0.0217033 -0.495964 0.260929 -0.153093 -0.0958619 -0.289519 -0.0360208 0.193031 -0.236435 0.418591 -0.157756 0.261793 -0.311806 -0.0159032 0.28754 0.132263 -0.00655521 0.040896 0.235751 0.171363 0.0768306 -0.0476523 0.0179186 0.0764632 0.00437948 0.201694 0.434068 -0.104703 -0.320829 0.0377398 0.587799 -0.022451 0.0245869 0.279206 -0.00825889 0.113145 -0.0357756 0.400341 0.0114729 0.197516 0.103801 0.242349 -0.01026 -0.366874 0.45953 0.337743 0.0798711 0.113132 0.0427156 0.0196555 -0.0234384 -0.374756 -0.632849 0.14033 0.249372 -0.194761 0.237989 0.0896062 0.105222 0.0507504 0.319208 -0.20261 0.444091 0.212329 -0.452211 0.0208904 0.0955423 -0.282792 -0.156237 -0.233384 -0.0633029 -0.571464 0.239009 -0.238024 -0.251242 0.221296 0.268376 0.365108 -0.089741 -0.120014 -0.354007 0.13318 0.386048 0.341803 -0.327335 0.392971 -0.351459 -0.130453 0.167582
13 0.0304629 0.080006 -0.192611 -0.222285 -0.0617471 -0.0484802 -0.374726 0.0826518 -0.329445 -0.0860371 0.290493 0.0824796 -0.0403181 0.160206 0.293923 -0.104791 -0.174124 0.190843 0.155175 -0.0488522 -0.130239 0.0704926 0.0144639 -0.0816907 -0.0909474 0.161693 -0.392608 -0.232852 -0.250348 0.034077 0.0601738 -0.00225558 -0.181974 0.111075 0.305894 -0.236978 0.145198 -0.103222 -0.261817 -0.118295 -0.262389 0.371507 -0.114796 -0.145173 -0.422595 -0.153469 0.0552114 -0.0712867 0.383359 -0.0527318 0.340656 -0.447972 0.103193 0.206059 -0.184859 -0.0531308 -0.0334981 0.37268 0.337317 0.292934 0.27812 0.0433953 -0.0951264 -0.0203717 0.0583555 0.0192282 0.0287628 -0.0936005 0.416664 0.0471915 -0.286846 0.124278 -0.169721 -0.00287002 0.181932 -0.0315876 0.177557 -0.227164 -0.0585228 -0.115126 -0.0373308 -0.0633168 -0.0855741 -0.00270045 0.000859202 -0.327969 -0.06001 -0.382456 0.11796 0.183533 -0.113107 -0.0954571 -0.408486 0.0968111 0.181402 0.147258 0.0634479 0.556246 0.107855 0.443497 0.030492 0.206112 -0.088515 0.022523 0.10204 0.188187 -0.272351 -0.149202 -0.179627 0.180032 -0.0632065 0.12574 -0.0302139 -0.203127 -0.0303815 0.0621918 0.149495 0.394106 -0.245883 0.036261 -0.2686 0.150818 -0.0174916 0.0189228 0.37214 -0.247303 -0.386688 -0.0566957
65 -0.168015 0.254063 -0.0956697 -0.235368 0.0121227 -0.0892605 -0.353259 0.0506096 -0.321683 0.0188616 0.128161 0.00677415 -0.0572462 0.212142 0.289718 -0.119406 -0.359679 0.186613 0.161578 0.0103555 -0.211159 -0.0237607 0.0335296 -0.0398371 -0.0953298 0.109255 -0.456949 -0.206337 -0.211564 0.0236417 0.0281157 0.0551791 -0.188455 -0.0590455 0.306796 -0.196604 0.143894 -0.113584 -0.179378 -0.19145 -0.214215 0.31901 -0.0596602 -0.136262 -0.386995 -0.229252 0.0309992 0.0450651 0.383579 -0.0975113 0.410999 -0.429574 0.0861562 0.189563 -0.264711 -0.0586341 -0.00857921 0.370402 0.36563 0.395842 0.279984 0.000529213 -0.0926178 -0.022335 0.113639 0.0396767 0.0163082 -0.176919 0.409922 0.0853634 -0.245193 0.0767528 0.00899478 -0.151948 0.187201 0.0338988 0.0877368 -0.0722814 0.0779417 -0.0835183 -0.0500583 -0.0036331 -0.169379 0.131634 0.0512865 -0.264383 0.0716073 -0.346912 -0.0514149 0.160433 -0.176244 -0.0376522 -0.438369 0.0945544 0.19074 0.161407 0.0459366 0.507228 -0.012412 0.402405 -0.0031987 0.22777 -0.0395571 -0.0799845 0.062508 0.142691 -0.237908 -0.0213706 -0.127121 0.229017 -0.0568254 0.126319 -0.0150164 -0.267117 -0.0524961 0.0477139 0.0251764 0.31288 -0.250517 0.123012 -0.2508 0.0848353 -0.0340448 -0.0268809 0.459173 -0.182091 -0.42847 0.0490118
73 -0.105102 0.174739 -0.0945182 -0.259408 -0.0285286 -0.0617288 -0.336404 0.0342917 -0.342727 -0.0682006 0.210962 0.143205 -0.0924366 0.244982 0.215421 -0.0717217 -0.255048 0.240473 0.185135 0.017043 -0.148178 0.0450583 0.0574071 -0.0965441 -0.0698459 0.155188 -0.44586 -0.256207 -0.319385 0.0348194 0.0215977 0.11149 -0.224103 0.00634891 0.244662 -0.220669 0.124325 -0.170139 -0.17373 -0.217468 -0.143895 0.358632 -0.0578395 -0.151827 -0.451499 -0.217582 -0.0066827 -0.00117877 0.404644 -0.0993855 0.443354 -0.512925 0.128709 0.244439 -0.171998 -0.0575035 0.0074567 0.377003 0.396481 0.372156 0.206316 -0.000888036 -0.151318 -0.0672863 0.0595708 0.0936559 -0.0472225 -0.118598 0.398837 0.0689545 -0.373488 -0.0298709 -0.0624073 -0.101327 0.148576 -0.0379996 -0.0409555 -0.098855 0.0721964 -0.127584 -0.042677 -0.104856 -0.160697 0.094682 0.072038 -0.293783 0.0250294 -0.371635 0.0303357 0.0938096 -0.20849 -0.035927 -0.460201 0.0371971 0.252369 0.0939949 0.0678587 0.505025 -0.0639638 0.350522 0.038043 0.202204 -0.0940552 -0.00232201 0.0589143 0.153291 -0.242498 -0.07465 -0.187567 0.157586 -0.0244341 0.0617361 -0.029172 -0.254899 -0.0452304 -0.0667743 0.111311 0.317665 -0.230211 0.10051 -0.233181 0.209856 -0.0644356 0.0223499 0.480341 -0.153527 -0.337134 0.00924832
71 -0.0667303 0.125936 -0.0901628 -0.246223 -0.125699 -0.0599411 -0.424064 0.0825316 -0.249588 -0.060132 0.233094 0.11517 -0.0850277 0.254153 0.249661 -0.0624563 -0.257664 0.172477 0.244892 -0.00272284 -0.165971 0.057806 -0.0281907 -0.0144666 -0.0246113 0.0846775 -0.449342 -0.236681 -0.287419 0.0842327 0.0733806 -0.00652373 -0.161894 0.0547969 0.265218 -0.268072 0.153383 -0.16074 -0.169444 -0.275352 -0.267129 0.337211 -0.080732 -0.130966 -0.359374 -0.217912 0.0266032 -0.0218844 0.455068 -0.101011 0.47479 -0.392135 0.00401917 0.216129 -0.228721 -0.106193 -0.038368 0.297647 0.308526 0.319404 0.31131 0.0152623 -0.0925904 -0.0112043 0.113547 0.0864293 0.0339066 -0.147952 0.35647 0.0698357 -0.390529 0.0491641 -0.0810932 -0.0761819 0.16024 0.0435664 0.0729018 -0.133058 0.00834065 -0.14224 -0.0340197 -0.109938 -0.130851 0.0780198 0.0162875 -0.336053 0.070008 -0.327241 0.0537767 0.114626 -0.0909797 -0.0143297 -0.4457 0.0580683 0.26868 0.0137131 0.0259035 0.422955 -0.0465656 0.295712 -0.0334646 0.183616 -0.0600124 0.070018 0.109626 0.118926 -0.273894 -0.102471 -0.167944 0.196084 -0.0201111 0.0930144 -0.0962682 -0.264697 -0.0993297 0.0711136 0.140469 0.425238 -0.160502 0.0955866 -0.302984 0.139745 -0.000484374 0.0031686 0.404943 -0.164772 -0.389664 0.00193749
53 -0.111819 0.202793 -0.224519 -0.206753 0.0179522 -0.0231361 -0.380054 0.019521 -0.296725 -0.041891 0.244432 0.0559796 -0.114633 0.268373 0.267401 -0.0772237 -0.275744 0.231013 0.154292 -0.0240477 -0.0677999 -0.00162422 0.0443281 -0.0232462 -0.037744 0.160684 -0.394205 -0.228273 -0.216955 0.111928 -0.0129086 0.0291069 -0.237099 -0.0529104 0.2455 -0.163071 0.132776 -0.142137 -0.121388 -0.181719 -0.22162 0.346962 -0.00880956 -0.0961095 -0.41768 -0.175044 0.086475 0.0269 0.420197 -0.0403699 0.423832 -0.341923 -0.00594187 0.189172 -0.218749 -0.0411034 -0.000513008 0.357793 0.340641 0.35253 0.349948 0.0297888 -0.168111 -0.0249438 0.043016 0.0873666 -0.0501375 -0.2263 0.345047 0.12169 -0.31417 0.00485838 -0.071788 -0.0854443 0.232076 -0.0311408 0.0342103 -0.112596 0.0679539 -0.0671281 -0.0273373 -0.0622888 -0.0312577 0.023001 0.00997052 -0.40202 0.00362678 -0.393272 0.0811523 0.0881014 -0.09827 -0.114791 -0.33553 0.1089 0.20536 0.076183 0.102739 0.458745 0.000199604 0.337156 0.00258868 0.11818 -0.0405193 0.0116096 0.140679 0.106793 -0.298105 -0.0682269 -0.186105 0.132939 -0.0990803 0.0819102 -0.127052 -0.200324 -0.14602 0.0657681 0.0411611 0.406422 -0.228403 0.102341 -0.183091 0.122173 -0.100567 0.00013757 0.366434 -0.171504 -0.40199 -0.0342771
3 0.0170753 0.159697 -0.111766 -0.188458 -0.0473273 -0.0292752 -0.316442 0.0947043 -0.334855 -0.0325444 0.276497 0.0644447 -0.0786877 0.156563 0.293076 -0.0494895 -0.262239 0.174681 0.181248 -0.0454256 -0.162792 0.0684276 0.0830236 -0.111544 -0.0877052 0.149334 -0.455113 -0.191854 -0.254356 0.0212945 0.0299373 0.0337619 -0.201106 0.0141108 0.260045 -0.2141 0.175596 -0.12915 -0.16271 -0.122939 -0.249618 0.3554 -0.0388918 -0.144154 -0.426782 -0.183557 5.10714e-05 -0.0392517 0.368699 -0.0703806 0.38023 -0.48773 0.0253618 0.195803 -0.214386 -0.128821 -0.0332075 0.32735 0.32526 0.327506 0.274346 0.0262077 -0.0836557 -0.0465946 0.125436 -0.00340628 0.0570813 -0.127424 0.395139 0.0526111 -0.258805 0.0973681 -0.124957 -0.0351986 0.22041 -0.00166994 0.106968 -0.183859 0.0259151 -0.079317 -0.0409944 -0.0699329 -0.10959 0.0984686 0.0642648 -0.281017 0.0608839 -0.366635 0.0281964 0.185329 -0.143648 -0.0110632 -0.356488 0.0636199 0.205797 0.106668 0.0960821 0.543857 0.016127 0.385338 0.0587438 0.221321 -0.128687 0.0226797 0.073183 0.138443 -0.233764 -0.103018 -0.115227 0.0990771 -0.107879 0.0997382 -0.0340212 -0.216555 -0.0457107 0.057578 0.129716 0.30976 -0.211532 0.113873 -0.20551 0.119897 -0.0665084 -0.01451 0.412465 -0.173437 -0.355429 -0.0670676
20 -0.0712745 0.161023 -0.107244 -0.249737 -0.0105542 -0.102355 -0.293413 0.0290378 -0.339874 -0.105665 0.278599 0.10732 -0.0628176 0.112109 0.241522 -0.0259471 -0.20109 0.249577 0.219311 0.045429 -0.202862 0.0617018 0.0766412 -0.100965 -0.128316 0.208286 -0.433223 -0.165504 -0.29803 0.125398 0.0765614 0.0800974 -0.226883 0.0105436 0.195286 -0.239095 0.157267 -0.0454438 -0.203428 -0.198632 -0.20535 0.372934 -0.0897008 -0.248288 -0.427035 -0.295764 0.064544 -0.0781944 0.315835 -0.0814048 0.414354 -0.472101 0.0431139 0.236587 -0.203875 -0.110552 -0.0348396 0.267725 0.344258 0.300134 0.305166 0.0867898 -0.130591 0.0170632 0.07772 -0.00395819 0.0421558 -0.209206 0.393607 0.117031 -0.235161 0.0500095 -0.104697 -0.0741635 0.170473 0.0475508 0.0175368 -0.192223 0.00831152 -0.136544 -0.00737799 -0.0834529 -0.0900585 0.107011 0.0557403 -0.314053 0.0189264 -0.332965 0.0591489 0.173581 -0.162983 -0.0207724 -0.369458 0.117758 0.177422 0.099478 0.0368104 0.506862 -0.0364837 0.368357 0.075883 0.214094 0.00285246 0.0251118 0.144868 0.146532 -0.314649 -0.112062 -0.142031 0.123462 -0.0586594 0.121378 -0.070403 -0.243568 -0.0606612 0.0440645 0.123609 0.341382 -0.228373 0.141214 -0.130176 0.0767464 -0.175574 -0.078508 0.33883 -0.103519 -0.414097 -0.0264975
63 0.00466384 0.159701 -0.150018 -0.262 -0.0398872 -0.0351214 -0.401234 0.0740415 -0.284658 -0.0641866 0.2398 0.0630978 -0.0793636 0.242684 0.236939 -0.0785939 -0.298896 0.202624 0.152538 -0.0486605 -0.129216 0.0602741 0.021447 -0.0523866 -0.0477599 0.114395 -0.473965 -0.236894 -0.261561 0.0025801 0.0378066 -0.00561056 -0.188146 -0.00422223 0.25465 -0.208 0.0737259 -0.124458 -0.117121 -0.229999 -0.211371 0.367456 -0.0631457 -0.0871741 -0.431094 -0.175153 -0.0512595 -0.0293996 0.47924 -0.0918841 0.47764 -0.441081 0.00950044 0.188643 -0.172411 -0.0872812 -0.0781251 0.286728 0.30555 0.335261 0.33981 0.0187251 -0.0989202 -0.0698405 0.101686 0.0756519 0.00733178 -0.14466 0.383939 0.056599 -0.367741 0.034759 -0.0489181 -0.0221816 0.230716 0.039385 0.0631761 -0.14447 0.0284797 -0.110983 -0.0657365 -0.120118 -0.168469 0.0883118 0.0944276 -0.293229 0.0747615 -0.366823 0.0401223 0.172588 -0.142165 -0.0176905 -0.401095 0.0223218 0.187456 0.0324471 0.102549 0.430348 -0.0112291 0.305011 0.0361213 0.179541 -0.122982 0.0628876 0.0693465 0.0796337 -0.207593 -0.00943252 -0.112368 0.133611 -0.0812636 0.0974702 -0.132986 -0.221028 -0.0927999 0.0337202 0.163764 0.332957 -0.174055 0.105209 -0.335859 0.167578 -0.00088723 -0.0301989 0.399269 -0.180972 -0.391768 -0.00259249
31 -0.0493827 0.196652 -0.17425 -0.204696 -0.0312987 -0.064482 -0.345395 0.0343845 -0.306534 -0.0749881 0.25818 0.109034 -0.0807244 0.194936 0.248728 -0.062592 -0.193983 0.236009 0.163375 -0.00833273 -0.117073 0.0382737 0.0760429 -0.0540599 -0.0729605 0.145754 -0.393747 -0.229642 -0.272097 0.104969 0.0183798 0.0299843 -0.231655 0.00245164 0.230788 -0.222299 0.136124 -0.127352 -0.196497 -0.203544 -0.19989 0.327769 -0.0480254 -0.136533 -0.442816 -0.198577 0.0335067 -0.029819 0.390765 -0.070483 0.365679 -0.401681 0.0311762 0.220639 -0.144698 -0.0695738 -0.00897467 0.306732 0.342713 0.28305 0.269199 0.025311 -0.171934 -0.0199166 0.0557677 0.0291746 -0.0317425 -0.19097 0.335857 0.0812568 -0.315351 0.0291549 -0.100029 -0.0673076 0.175803 -0.0323937 0.0190271 -0.127425 0.0303098 -0.0956017 -0.00613189 -0.075369 -0.0634793 0.055151 0.0371487 -0.345361 0.019514 -0.367782 0.0574323 0.136733 -0.132449 -0.071784 -0.349163 0.0823182 0.207552 0.0750044 0.0861121 0.457591 -0.000531278 0.353347 0.0189951 0.170029 -0.0413725 0.00331932 0.115564 0.126084 -0.274944 -0.0673533 -0.183981 0.119381 -0.0671998 0.108139 -0.0953413 -0.207578 -0.111499 -0.00920556 0.0671971 0.333948 -0.230042 0.085767 -0.19314 0.145748 -0.112607 -0.0123387 0.353682 -0.145454 -0.359965 -0.0372998
1 0.00476323 0.15986 -0.141753 -0.121233 -0.0615863 -0.00196173 -0.351597 0.0982021 -0.32459 -0.0225569 0.25054 0.139975 -0.105852 0.258282 0.294801 -0.0324826 -0.333496 0.1847 0.219093 -0.054669 -0.0500794 0.0328021 0.103642 -0.0752067 -0.0380002 0.122749 -0.39543 -0.256852 -0.198844 0.0488003 -0.0294844 0.0724628 -0.205754 0.0561078 0.280715 -0.208264 0.176777 -0.222407 -0.117838 -0.16071 -0.215498 0.419192 0.0101504 -0.141236 -0.480663 -0.190022 0.0202521 0.0364574 0.354263 -0.051072 0.352355 -0.399106 0.0658516 0.131266 -0.171688 -0.111921 -0.0378684 0.350332 0.363784 0.345646 0.261049 -0.0408917 -0.127312 -0.114919 0.100961 0.0372361 -0.0131868 -0.163113 0.380998 0.0294413 -0.294289 0.0405576 -0.172681 -0.0685136 0.226671 0.0144577 0.0643608 -0.179125 0.0708672 -0.109355 0.00701636 -0.065972 -0.0302294 -0.01855 0.0658464 -0.370096 0.101857 -0.460838 0.0410931 0.0515476 -0.104889 -0.0704933 -0.333116 0.0715951 0.229025 0.161287 0.0864042 0.519856 0.0660789 0.359811 0.0701856 0.183707 -0.121 0.000849903 0.111364 0.0769769 -0.199357 -0.0490715 -0.213598 0.132673 -0.0437782 0.0515393 -0.0628775 -0.244707 -0.0784002 0.0534088 0.0471215 0.36997 -0.26641 0.0963892 -0.172638 0.15444 -0.0740518 0.000580897 0.395834 -0.211503 -0.304872 -0.0893151
21 -0.0334622 0.165614 -0.123063 -0.249534 -0.0199304 -0.0845958 -0.31628 0.0836748 -0.342839 -0.0767647 0.204215 0.105519 -0.0631542 0.121149 0.283093 -0.0556379 -0.187072 0.272293 0.102059 0.0246805 -0.186142 0.0263289 0.0927059 -0.063431 -0.0910143 0.148577 -0.431578 -0.241799 -0.287976 0.0662491 0.0670195 0.0297204 -0.24221 0.0287035 0.22106 -0.214285 0.114825 -0.110333 -0.197134 -0.225111 -0.12605 0.308653 -0.0791314 -0.183573 -0.450114 -0.199943 -0.0426541 -0.0703034 0.353418 -0.100512 0.322783 -0.429169 0.100227 0.244039 -0.0836669 -0.100199 -0.0186235 0.3098 0.357542 0.27159 0.245076 0.0588087 -0.161464 -0.0137121 0.0704186 -0.0110319 0.000718781 -0.202869 0.321569 0.0712423 -0.268527 0.00272022 -0.0690074 -0.0886318 0.209282 0.0218031 0.0203292 -0.129688 0.0297052 -0.108679 0.0259792 -0.0559463 -0.128983 0.082126 0.0870659 -0.254508 0.0396692 -0.326938 0.0132714 0.164166 -0.16316 -0.0365044 -0.400325 0.105486 0.181429 0.0842533 0.0610946 0.496945 -0.0075594 0.395038 0.0669702 0.193071 -0.0490371 0.0137531 0.133806 0.169698 -0.253448 -0.0347696 -0.176651 0.125776 -0.0278698 0.129971 -0.112966 -0.23136 -0.102857 -0.0220492 0.049559 0.263641 -0.267498 0.0984808 -0.257749 0.129211 -0.106084 -0.058267 0.390648 -0.13702 -0.375205 -0.0439298
43 -0.0476556 0.146865 -0.117492 -0.260821 -0.0380062 -0.0532318 -0.374743 0.0666353 -0.306336 -0.0723615 0.237815 0.0947728 -0.0659391 0.194354 0.261782 -0.0599933 -0.269571 0.231909 0.147256 0.000680543 -0.156467 0.0554024 0.0539682 -0.0630591 -0.0885131 0.142819 -0.474039 -0.244574 -0.285015 0.0488706 0.0529649 0.0343111 -0.220912 0.0103308 0.238219 -0.214785 0.125458 -0.137674 -0.1449 -0.235634 -0.179189 0.365806 -0.0570071 -0.174109 -0.426212 -0.21262 -0.00801698 -0.0299189 0.400691 -0.0934614 0.43504 -0.430447 0.0503207 0.189858 -0.157562 -0.0793731 -0.0401335 0.298012 0.352196 0.308834 0.300276 0.0290626 -0.121437 -0.0370431 0.107866 0.0358625 -0.00603139 -0.157959 0.365393 0.0664723 -0.325353 0.0185345 -0.0640305 -0.0612259 0.240663 0.0507092 0.0377937 -0.151909 0.0492014 -0.123558 -0.0116677 -0.0845062 -0.117654 0.0767347 0.0840159 -0.299871 0.0659178 -0.347813 0.023011 0.134419 -0.141258 -0.0109372 -0.426791 0.0612178 0.218064 0.0476714 0.0497668 0.476671 -0.0239936 0.33249 0.0620478 0.186512 -0.0922398 0.0798609 0.109458 0.117457 -0.244307 -0.0466458 -0.176942 0.129541 -0.0307914 0.102504 -0.107458 -0.228878 -0.0827121 0.039814 0.118802 0.339267 -0.221896 0.127934 -0.277143 0.126428 -0.069419 -0.0460176 0.376155 -0.147856 -0.393888 -0.0274156
25 0.17723 0.540721 0.14469 0.128546 -0.490934 -0.0417612 -0.333611 0.42667 -0.0646528 -0.305985 -0.121433 -0.26948 -0.118202 0.229849 0.515155 0.207077 0.182017 0.0117805 0.24927 -0.124229 0.0950007 0.270644 -0.232106 0.174727 -0.154826 0.237529 0.0144206 0.0738608 -0.107841 0.562248 -0.000773943 -0.227184 -0.18747 0.178996 0.591768 -0.490497 0.418496 0.0557278 -0.314566 -0.194728 -0.657047 -0.0644673 -0.063245 -0.574076 0.0773128 -0.125308 0.234191 -0.188976 0.455328 -0.236457 -0.0139836 0.288712 -0.0601427 0.075482 -0.0392418 -0.00504846 -0.0612711 0.549604 0.232508 0.0360392 0.0793817 0.0863439 0.0172442 0.459908 0.321284 0.239554 0.234368 -0.396929 0.248518 0.525765 -0.00687677 0.356507 0.177788 -0.218458 0.169781 -0.389664 0.539943 0.0829289 0.153912 0.358001 0.346873 0.20433 -0.154212 0.438809 0.125147 -0.327414 0.247178 0.0723246 -0.0664272 -0.0324858 -0.0148975 -0.356498 -0.288927 -0.0116487 -0.159635 0.111801 0.169325 0.430044 -0.118183 0.609129 -0.108944 0.33246 0.137526 -0.0248573 0.34786 0.117908 -0.236946 -0.571 -0.120168 0.0388096 -0.440479 0.189628 -0.239984 0.104689 0.29556 0.521462 0.277302 0.417569 -0.453255 -0.202277 0.348462 0.0213804 0.0155057 -0.0412716 0.0499504 -0.379872 -0.397147 -0.0263497
41 0.220223 0.533393 0.159896 0.148459 -0.515279 -0.0333463 -0.332112 0.436534 -0.0729722 -0.319345 -0.172285 -0.232901 -0.147481 0.244527 0.536479 0.207692 0.160124 -0.00106883 0.249291 -0.14366 0.113704 0.291744 -0.247341 0.168767 -0.168205 0.234583 0.0334586 0.0501413 -0.112593 0.553944 0.014113 -0.213061 -0.180865 0.175012 0.575377 -0.528147 0.417949 0.0651447 -0.297443 -0.239509 -0.60634 -0.0702327 -0.0602939 -0.625349 0.0909025 -0.146633 0.192293 -0.188068 0.442656 -0.244118 -0.0466133 0.352263 -0.0265187 0.060528 0.00272991 -0.014901 -0.0712249 0.559887 0.233447 0.0586425 0.062001 0.104408 -0.0109648 0.446193 0.30004 0.243395 0.232114 -0.416285 0.244449 0.533223 -0.0356723 0.335814 0.169502 -0.25768 0.158941 -0.432701 0.50167 0.11654 0.138591 0.382619 0.351095 0.191899 -0.145469 0.422302 0.143147 -0.357987 0.290511 0.0648717 -0.0803178 -0.0665991 -0.0149667 -0.319502 -0.273842 -0.0590937 -0.206261 0.0683917 0.200745 0.422808 -0.152482 0.618462 -0.096409 0.321201 0.118821 -0.025417 0.379813 0.0840876 -0.190423 -0.571756 -0.107837 0.0376487 -0.427625 0.161269 -0.264081 0.14828 0.294332 0.478077 0.289505 0.41371 -0.503662 -0.172899 0.358659 0.0222259 0.0123651 -0.055794 0.0112289 -0.384706 -0.389536 -0.0246241
36 0.183583 0.557219 0.171088 0.146223 -0.53466 -0.0332739 -0.341037 0.439306 -0.032957 -0.343112 -0.172789 -0.280488 -0.134704 0.258537 0.531282 0.230592 0.176931 0.00289375 0.245671 -0.117729 0.116944 0.300466 -0.256635 0.187196 -0.180446 0.225127 0.042732 0.0768289 -0.0655398 0.573226 -0.00633557 -0.228315 -0.18375 0.183226 0.627122 -0.509908 0.408484 0.071885 -0.299492 -0.189642 -0.646183 -0.062746 -0.0630228 -0.610902 0.0814285 -0.105986 0.238557 -0.194938 0.456141 -0.245875 -0.0376508 0.351868 -0.0154623 0.057591 -0.00584551 0.0419603 -0.0777267 0.582991 0.223512 0.0524579 0.0615801 0.0717123 0.0223426 0.440646 0.30926 0.282551 0.237764 -0.399925 0.251197 0.553721 0.0222157 0.37532 0.197806 -0.227657 0.174157 -0.418415 0.540744 0.0959371 0.15682 0.40505 0.365437 0.21102 -0.175558 0.44478 0.171992 -0.347044 0.253755 0.0918852 -0.0960007 -0.0760626 -0.00135226 -0.375248 -0.319259 -0.0500841 -0.206042 0.0690875 0.186673 0.434784 -0.119058 0.626934 -0.095999 0.312936 0.124801 -0.0154929 0.34167 0.108841 -0.220389 -0.601172 -0.124399 0.0319889 -0.451923 0.17244 -0.24555 0.124563 0.304578 0.538671 0.312163 0.411647 -0.500848 -0.222229 0.379899 0.0283505 0.0296821 -0.0364638 0.012592 -0.375636 -0.39139 -0.0409283
70 0.269566 0.447965 0.210143 0.148446 -0.566038 -0.0266277 -0.29636 0.420213 -0.0886823 -0.348415 -0.236184 -0.151435 -0.172739 0.278133 0.534058 0.190013 0.119003 0.0191633 0.238133 -0.136314 0.137064 0.343665 -0.264327 0.15428 -0.171069 0.152703 0.049265 0.0553867 -0.0608708 0.461754 0.0294881 -0.156469 -0.158975 0.185864 0.523592 -0.542263 0.359194 0.0599356 -0.202049 -0.244972 -0.463784 -0.0550728 -0.0376083 -0.645466 0.0997961 -0.115921 0.121438 -0.185292 0.395495 -0.203874 -0.085389 0.418261 0.0621001 0.0269441 0.0756692 0.0033842 -0.0541812 0.579418 0.223331 0.104323 0.0421432 0.0985897 -0.0481588 0.371923 0.205243 0.293873 0.197447 -0.372061 0.22101 0.51021 -0.00271501 0.29583 0.162187 -0.269217 0.122975 -0.469821 0.402161 0.179838 0.0716821 0.433087 0.303451 0.153648 -0.109876 0.339291 0.175015 -0.375261 0.298026 0.0926364 -0.11866 -0.15774 -0.020702 -0.257221 -0.316 -0.153216 -0.250223 -0.0782653 0.203952 0.405931 -0.17365 0.588428 -0.0338023 0.231555 0.0420373 0.00860671 0.333409 0.0345441 -0.143119 -0.568434 -0.0884637 0.0288453 -0.368305 0.0485118 -0.270518 0.197287 0.258824 0.361074 0.307966 0.354171 -0.543615 -0.1547 0.345751 0.0153436 0.0263103 -0.0510342 -0.0543495 -0.339353 -0.315749 -0.0413392
23 0.210872 0.489116 0.215424 0.166135 -0.577284 -0.00770106 -0.309667 0.415225 -0.0300242 -0.363527 -0.219467 -0.226641 -0.159719 0.288272 0.506743 0.217812 0.13482 0.0144235 0.229291 -0.105102 0.133359 0.348456 -0.25683 0.16879 -0.196197 0.154631 0.0540595 0.0918207 0.0142394 0.482466 -0.0315113 -0.165046 -0.157116 0.186419 0.59992 -0.493651 0.355529 0.0503369 -0.182394 -0.154508 -0.50781 -0.0351254 -0.0397677 -0.608301 0.08704 -0.0617485 0.193229 -0.185481 0.400994 -0.201885 -0.0620399 0.408954 0.0582315 0.0122928 0.0801614 0.084356 -0.0683835 0.596983 0.173466 0.0662451 0.0505331 0.0565365 0.0129524 0.362397 0.238236 0.325679 0.190751 -0.347078 0.205945 0.542845 0.0902206 0.352298 0.220718 -0.205625 0.160054 -0.423802 0.455215 0.146584 0.101767 0.450777 0.333236 0.187554 -0.143613 0.388102 0.223901 -0.351417 0.240328 0.147315 -0.143316 -0.164512 -0.0123748 -0.328898 -0.3371 -0.133882 -0.241468 -0.0704167 0.194008 0.403286 -0.155843 0.57836 -0.047255 0.230715 0.0607587 0.00209884 0.277087 0.0743879 -0.190877 -0.597978 -0.100233 -0.000661249 -0.419316 0.0987403 -0.230208 0.16414 0.279932 0.457644 0.317035 0.314463 -0.530093 -0.195294 0.361443 0.0233854 0.0413599 -0.0385806 -0.0570129 -0.321881 -0.309628 -0.070378
69 0.279915 0.410408 0.246995 0.172841 -0.588466 -0.0108979 -0.270994 0.393042 -0.0715296 -0.375863 -0.272051 -0.138458 -0.191309 0.311738 0.504373 0.18307 0.10315 0.0399097 0.228898 -0.121051 0.168095 0.378843 -0.268421 0.158505 -0.17974 0.111804 0.0619 0.0802831 0.0179221 0.398905 -0.0216861 -0.106949 -0.129826 0.197181 0.526684 -0.526974 0.306877 0.0517185 -0.106512 -0.206255 -0.374786 -0.0102805 -0.038108 -0.644334 0.105442 -0.0804777 0.104094 -0.176382 0.378801 -0.154475 -0.0903954 0.451939 0.132488 -0.0215969 0.139891 0.055034 -0.0501084 0.59204 0.164917 0.101278 0.04125 0.0893161 -0.0417696 0.322452 0.148557 0.348473 0.15615 -0.32415 0.183964 0.523287 0.071626 0.29136 0.212188 -0.253099 0.117974 -0.454709 0.358151 0.210134 0.0446146 0.478778 0.276385 0.145902 -0.0809631 0.312654 0.229643 -0.376053 0.280821 0.145541 -0.172855 -0.236922 -0.0280165 -0.247806 -0.321982 -0.218498 -0.275327 -0.16911 0.213585 0.376145 -0.195622 0.549675 -0.0122614 0.170886 0.00490501 0.00260143 0.258419 0.0101009 -0.12858 -0.585348 -0.0728488 -0.00871787 -0.360492 0.00311831 -0.252886 0.204904 0.271675 0.323478 0.307878 0.268551 -0.562492 -0.144843 0.324779 0.0211443 0.0395014 -0.0703811 -0.09704 -0.306168 -0.268533 -0.0593747
56 0.309161 0.357521 0.310039 0.123768 -0.644589 0.0307035 -0.209292 0.348742 -0.0750642 -0.417422 -0.294814 -0.0338633 -0.235983 0.374381 0.4513 0.152114 0.0341872 0.135449 0.234184 -0.0897482 0.230929 0.42923 -0.278016 0.14445 -0.155031 0.0296258 0.0264172 0.0560524 0.0670311 0.223713 -0.0684191 -0.023303 -0.0976159 0.228832 0.517921 -0.557861 0.19353 0.0109789 0.0413994 -0.188541 -0.120043 0.104646 -0.0265322 -0.62359 0.0199338 -0.0175752 -0.0377037 -0.209307 0.411779 -0.0410861 -0.091621 0.418926 0.321186 -0.00733179 0.317089 0.0753384 -0.0626671 0.630191 0.136284 0.161853 0.0441724 0.0581253 -0.0588442 0.129718 0.0533995 0.472676 0.0395442 -0.270022 0.167656 0.502874 0.0968595 0.145356 0.252962 -0.213409 0.0834392 -0.437058 0.185645 0.264198 0.0239792 0.52455 0.181219 0.0530495 -0.0494957 0.21798 0.365057 -0.341961 0.285171 0.153308 -0.27613 -0.386051 -0.0521937 -0.215221 -0.351993 -0.297245 -0.308654 -0.399893 0.203434 0.331563 -0.246171 0.457217 0.114291 0.0878125 -0.0868999 0.00644987 0.147208 -0.0723225 -0.0361024 -0.552968 -0.129564 -0.0289514 -0.325006 -0.15446 -0.307244 0.209226 0.266233 0.18219 0.345865 0.128426 -0.5691 -0.163541 0.225508 0.126327 0.118326 -0.165048 -0.0621826 -0.269062 -0.189121 -0.0673023
0 0.279253 0.325789 0.300881 0.108358 -0.614722 0.0332035 -0.195606 0.296044 -0.0821428 -0.419385 -0.277806 -0.00257081 -0.243595 0.392538 0.40898 0.129192 0.00415814 0.168893 0.221509 -0.0671633 0.248343 0.424543 -0.265331 0.141111 -0.148444 0.0194496 0.00253768 0.0412325 0.0869655 0.170096 -0.093294 0.0162891 -0.0744376 0.234627 0.510773 -0.523718 0.133781 -0.00370369 0.0872416 -0.164546 -0.056606 0.171756 -0.0499746 -0.583141 -0.0227702 -0.00959607 -0.059731 -0.19887 0.417284 0.00271211 -0.0417478 0.35688 0.372723 -0.00959885 0.328303 0.0961644 -0.0496024 0.626849 0.133341 0.193043 0.0497684 0.047037 -0.0602695 0.0581761 0.00996738 0.504214 0.00207226 -0.235432 0.182295 0.479719 0.0995641 0.105038 0.263064 -0.19173 0.0826294 -0.396161 0.133362 0.256117 0.0239756 0.506737 0.141015 0.0270827 -0.0350958 0.186725 0.392269 -0.328802 0.25597 0.138079 -0.299356 -0.400273 -0.0666477 -0.215477 -0.372438 -0.306612 -0.290377 -0.421925 0.191204 0.313148 -0.224073 0.412443 0.13289 0.0635048 -0.119989 -0.00214723 0.0826767 -0.0831029 -0.0350238 -0.514716 -0.149559 -0.0344794 -0.294806 -0.177952 -0.284527 0.167143 0.253885 0.132598 0.340402 0.0798688 -0.556732 -0.165233 0.162611 0.153988 0.135849 -0.179818 -0.0302687 -0.248934 -0.170565 -0.0697743
51 0.0317009 0.422483 0.061707 0.0660155 -0.199158 0.209028 -0.13866 0.254426 0.311887 -0.284969 -0.0897504 -0.287589 -0.082239 0.112878 -0.0461725 0.469867 0.12714 0.0465403 -0.0711027 -0.0487653 0.360003 0.0191484 -0.0226269 0.144366 -0.102865 0.461823 0.0509063 -0.11684 -0.213617 0.337654 -0.247935 -0.0291764 0.02432 0.194369 0.39743 -0.0547863 0.138424 -0.0123957 -0.0812742 -0.0460438 -0.204128 0.207977 -0.10204 -0.358252 -0.0252036 -0.110313 0.121656 -0.166003 0.234882 -0.220012 0.141965 -0.111535 0.131886 0.0240533 0.208001 0.00574344 -0.192959 0.149709 0.105236 0.018757 -0.205419 -0.000174881 0.142021 0.020916 0.446786 0.291178 0.0310557 -0.149321 0.173651 0.349279 -0.13099 -0.144799 0.211683 0.00805362 0.345638 0.016321 0.307332 -0.205179 0.507093 -0.0133475 0.371032 0.0184816 -0.337822 0.41859 0.452608 0.165633 0.266996 -0.103448 0.0713671 -0.180627 -0.0442035 -0.342541 0.0303242 0.111754 -0.194455 0.382654 0.0719902 0.0331845 -0.0380432 0.12775 0.00146455 0.420511 0.0508622 -0.0699627 0.328091 0.0507995 0.248754 -0.189669 -0.342192 -0.169182 -0.348906 0.159387 -0.26499 -0.0456453 0.395409 0.521075 0.401035 0.117004 -0.243621 -0.212743 0.057845 0.344102 0.128208 -0.219087 0.123507 -0.234129 0.0432788 -0.06111
15 0.0154386 0.502269 0.0659448 0.0632781 -0.282456 0.185199 -0.152222 0.251569 0.2738 -0.337083 -0.130043 -0.312249 -0.0711218 0.167658 0.000268318 0.461082 0.141295 0.115557 0.013482 -0.026246 0.352552 0.0663652 -0.0925187 0.167309 -0.091139 0.471226 0.0121988 -0.0810188 -0.178982 0.362999 -0.232729 -0.0246845 0.0327814 0.242699 0.469986 -0.120275 0.082489 0.00572555 -0.106369 -0.0428741 -0.271682 0.251043 -0.123118 -0.363172 -0.0804558 -0.080493 0.144438 -0.201331 0.304344 -0.224244 0.205504 -0.156481 0.158723 0.0859102 0.206691 0.0303735 -0.161425 0.228804 0.142783 0.0744843 -0.204933 -0.00357903 0.145351 0.0148104 0.40388 0.394085 0.00536374 -0.161726 0.186041 0.430139 -0.110299 -0.100397 0.242533 -0.0103143 0.328288 -0.00980621 0.365088 -0.179556 0.475245 0.0394106 0.357172 0.015579 -0.369678 0.430855 0.476779 0.146787 0.237368 -0.0825136 0.0490881 -0.199022 -0.115187 -0.426679 -0.0330496 0.121854 -0.200159 0.340986 0.0722919 0.09707 0.00150958 0.194749 -0.0267214 0.429467 0.038351 -0.122351 0.268441 0.0528099 0.143001 -0.243543 -0.362712 -0.154321 -0.399476 0.151338 -0.273284 -0.106564 0.386955 0.50448 0.458468 0.112369 -0.276572 -0.283374 0.0647304 0.35956 0.199397 -0.235067 0.184904 -0.279445 0.00140548 -0.0290098
45 0.370366 0.359344 0.255315 -0.104185 -0.359853 0.0746131 0.16881 0.434479 -0.348258 -0.456907 0.112348 -0.043784 -0.182511 0.351211 0.0400877 0.399798 0.304926 0.411209 0.614183 -0.178619 0.225647 0.441891 -0.149739 0.0226333 0.400645 0.473064 -0.0845064 0.260744 -0.22133 0.347205 0.0232463 0.241512 -0.306406 0.466743 0.441902 -0.19885 0.0618419 -0.172126 -0.114101 -0.0463713 -0.458545 0.292589 -0.0650822 -0.449518 -0.282527 -0.191211 0.0984927 -0.409815 0.334838 -0.0327023 0.54262 -0.475713 0.0124204 0.0039081 0.0564645 -0.210338 0.123127 0.436556 0.494172 0.0631425 -0.0588786 0.0202034 -0.0522796 0.26889 -0.00830562 0.478762 0.171498 -0.291986 0.382698 0.436998 -0.0171901 -0.169594 0.120319 -0.00739686 -0.0263243 -0.257753 0.195072 -0.0932823 0.153872 0.0601369 0.207233 -0.172808 -0.305825 0.370567 0.241426 -0.0846435 0.0303298 -0.123566 0.201968 0.0105397 -0.418151 -0.465311 -0.260388 -0.026089 -0.0316015 0.39412 -0.015804 0.350991 -0.119188 0.246708 0.166434 0.246107 -0.010366 -0.00373348 0.0530901 -0.0173312 -0.323996 -0.27674 0.0118886 -0.209479 -0.40506 -0.129824 -0.179054 -0.132051 0.491584 0.108505 0.533761 0.283711 -0.175451 -0.292223 0.354 0.370865 -0.137784 -0.203057 0.350714 -0.383499 0.0366759 0.0995456
75 0.36409 0.341663 0.288933 -0.0907111 -0.391473 0.0644867 0.189164 0.415214 -0.333892 -0.48317 0.0613859 -0.0377984 -0.184939 0.379392 0.0301628 0.389844 0.317375 0.434455 0.617463 -0.151822 0.247292 0.469638 -0.182913 0.0317538 0.390532 0.441865 -0.0732441 0.280988 -0.174798 0.315149 0.0170059 0.250695 -0.271274 0.481791 0.445953 -0.199538 0.00620108 -0.149074 -0.0637221 -0.0427645 -0.41409 0.305015 -0.0785477 -0.446976 -0.282587 -0.162254 0.0835043 -0.410941 0.326712 -0.00687353 0.53444 -0.451906 0.0559849 -0.00596481 0.0837699 -0.175775 0.143391 0.450412 0.474141 0.0877316 -0.0739628 0.00963338 -0.049891 0.239585 -0.0563811 0.533651 0.150256 -0.25138 0.36378 0.448824 0.0228692 -0.163093 0.151684 -0.00728621 -0.0391468 -0.258725 0.187783 -0.0712041 0.132264 0.102636 0.192876 -0.169363 -0.292402 0.343142 0.276022 -0.0872332 0.0180129 -0.0859271 0.161317 -0.0509557 -0.423758 -0.479704 -0.284076 -0.0684764 -0.0565999 0.32704 -0.0130021 0.343906 -0.110304 0.231333 0.175019 0.205059 -0.0388179 0.00115518 -0.00288799 -0.0384444 -0.320496 -0.297187 0.00117728 -0.214224 -0.390259 -0.174192 -0.165165 -0.13252 0.479201 0.0775236 0.550406 0.248523 -0.191092 -0.323503 0.342211 0.367837 -0.103838 -0.205364 0.330207 -0.362534 0.0610749 0.1006
28 0.329562 0.348185 0.271046 -0.0903937 -0.404737 0.0793753 0.160768 0.401789 -0.311474 -0.476734 0.0505818 -0.0498934 -0.170383 0.367927 0.0491772 0.375636 0.294405 0.43253 0.585488 -0.134506 0.233788 0.443892 -0.185188 0.0390221 0.359598 0.417462 -0.0932896 0.251082 -0.154219 0.302548 0.0152924 0.23432 -0.25337 0.471177 0.451655 -0.207351 -0.00284192 -0.150327 -0.0683295 -0.0315359 -0.391538 0.307208 -0.0746551 -0.420126 -0.287343 -0.127638 0.0819114 -0.40423 0.332678 -0.0189375 0.51625 -0.441363 0.0724455 0.0257649 0.0925796 -0.161215 0.139057 0.450305 0.462095 0.103353 -0.0795281 0.00190918 -0.0377895 0.199954 -0.0430024 0.539125 0.126909 -0.237604 0.343378 0.44675 0.0201144 -0.152599 0.149804 -0.00500167 -0.0179037 -0.247729 0.201107 -0.067702 0.13089 0.107428 0.191915 -0.16773 -0.29408 0.338382 0.290479 -0.069789 0.0173474 -0.0736612 0.142064 -0.0683444 -0.419625 -0.482779 -0.291482 -0.0494246 -0.0466883 0.281611 -0.0225236 0.344428 -0.0953699 0.244501 0.161442 0.207199 -0.053054 -0.00336096 -0.00976803 -0.0236377 -0.327676 -0.296154 -0.0372565 -0.199664 -0.39258 -0.163327 -0.173794 -0.145032 0.44237 0.08659 0.552546 0.227858 -0.197302 -0.326857 0.303119 0.364202 -0.0550728 -0.202026 0.346629 -0.352496 0.0555439 0.0872204
12 0.356887 0.369805 0.25426 -0.0875046 -0.357471 0.0698091 0.182471 0.426878 -0.342326 -0.448168 0.105188 -0.052055 -0.176548 0.341797 0.0321086 0.395942 0.318936 0.412364 0.612376 -0.173525 0.223334 0.433543 -0.150966 0.025989 0.403866 0.4773 -0.0719065 0.264205 -0.217828 0.352647 0.0198521 0.230166 -0.297801 0.462916 0.437156 -0.195574 0.0535503 -0.156786 -0.121359 -0.0464719 -0.46912 0.278098 -0.0685923 -0.43483 -0.272544 -0.186168 0.102655 -0.403251 0.324496 -0.039849 0.5296 -0.463605 0.00347641 0.0113186 0.0512505 -0.213155 0.128021 0.41992 0.488747 0.0578485 -0.0680462 0.0268895 -0.0460887 0.272792 -0.0115814 0.476328 0.172474 -0.292261 0.365699 0.438165 -0.0110324 -0.163182 0.1219 -0.00993034 -0.031068 -0.254647 0.209534 -0.0841435 0.158465 0.0573337 0.208948 -0.162704 -0.310049 0.376645 0.239071 -0.0758567 0.032235 -0.112198 0.199205 0.0154622 -0.422022 -0.479704 -0.242539 -0.0151704 -0.0461003 0.399841 -0.0148904 0.331655 -0.115033 0.246676 0.146546 0.255237 -0.00108504 -0.0192674 0.0451969 -0.0195647 -0.323475 -0.277376 0.0162296 -0.210649 -0.415214 -0.116012 -0.179335 -0.132816 0.482983 0.10301 0.52441 0.268182 -0.162118 -0.300397 0.357214 0.367907 -0.123087 -0.204205 0.348993 -0.38108 0.0438626 0.105058
54 0.364174 0.350411 0.269668 -0.0899074 -0.375088 0.0730676 0.192457 0.428171 -0.328907 -0.459952 0.088652 -0.0538343 -0.169884 0.34644 0.0335765 0.395591 0.31961 0.41914 0.608256 -0.166006 0.239201 0.446201 -0.168318 0.0308459 0.399422 0.459287 -0.0676761 0.275425 -0.193488 0.336364 0.0239432 0.235843 -0.284621 0.473204 0.43846 -0.191847 0.0310488 -0.157388 -0.0982228 -0.0355761 -0.442824 0.281091 -0.0705731 -0.432509 -0.269496 -0.164357 0.0917652 -0.409196 0.318705 -0.0227527 0.52469 -0.449427 0.0250138 0.00250534 0.0716907 -0.193302 0.137364 0.42958 0.483278 0.0653995 -0.0764754 0.0134491 -0.0439282 0.256939 -0.028164 0.502225 0.161228 -0.268291 0.354845 0.437608 0.00682401 -0.165143 0.136523 -0.00525861 -0.0389443 -0.260206 0.202103 -0.0744882 0.145237 0.0791047 0.200992 -0.169368 -0.303659 0.361196 0.254518 -0.0707533 0.0200141 -0.0952463 0.180678 -0.0162044 -0.420517 -0.479807 -0.261324 -0.0322104 -0.0500952 0.364868 -0.023834 0.329535 -0.112011 0.233712 0.164118 0.228634 -0.0189401 -0.00509888 0.0209718 -0.0295409 -0.320487 -0.282492 0.00911427 -0.215081 -0.399642 -0.143289 -0.175654 -0.128694 0.481744 0.0963211 0.5404 0.256907 -0.168119 -0.314938 0.357589 0.364554 -0.105413 -0.197602 0.340561 -0.373244 0.063302 0.10063
37 0.356676 0.374536 0.251336 -0.0903271 -0.362733 0.0713673 0.16814 0.422246 -0.337312 -0.445067 0.102254 -0.0543115 -0.178531 0.341827 0.0384259 0.388671 0.308146 0.41057 0.608459 -0.171954 0.226077 0.431464 -0.154595 0.0245081 0.387757 0.474713 -0.0863409 0.255479 -0.216372 0.345046 0.0185155 0.222795 -0.29397 0.458325 0.444616 -0.20302 0.0485599 -0.162066 -0.115263 -0.0461561 -0.460051 0.28574 -0.0725925 -0.429205 -0.282729 -0.182983 0.09833 -0.405398 0.340698 -0.0401714 0.532419 -0.468886 0.0124751 0.0180213 0.0577162 -0.205409 0.130809 0.428529 0.490184 0.0650361 -0.0600005 0.0206689 -0.0485222 0.262209 -0.00531795 0.476177 0.164204 -0.294288 0.366159 0.44364 -0.0207658 -0.169778 0.124333 -0.0107176 -0.0239405 -0.252126 0.206658 -0.0863797 0.156158 0.0636994 0.208 -0.166217 -0.308305 0.378454 0.246514 -0.0814965 0.0369242 -0.116783 0.19552 0.00837978 -0.423934 -0.478708 -0.24648 -0.014413 -0.038633 0.384278 -0.0112586 0.341104 -0.118874 0.24888 0.145217 0.252061 -0.00251131 -0.0193796 0.0514008 -0.0145912 -0.325491 -0.274692 -0.00195759 -0.202983 -0.418707 -0.11935 -0.182002 -0.139188 0.478193 0.107221 0.530574 0.271201 -0.173196 -0.298499 0.344298 0.375255 -0.109822 -0.210966 0.35924 -0.383122 0.0328814 0.103977
9 0.274832 0.358498 0.28654 -0.0480368 -0.440388 0.0753637 0.187343 0.354003 -0.247304 -0.487247 -0.0286326 -0.0882646 -0.141708 0.368306 0.0320197 0.351687 0.309767 0.431786 0.562456 -0.080607 0.242669 0.450287 -0.230679 0.0741715 0.334753 0.368743 -0.0642058 0.302974 -0.047318 0.268812 -0.00813623 0.220104 -0.176913 0.475801 0.450559 -0.20195 -0.0846046 -0.111196 -0.0309043 0.023771 -0.353474 0.303204 -0.0900827 -0.36847 -0.253842 -0.04609 0.0981363 -0.393324 0.318121 0.00439006 0.473588 -0.392475 0.113605 0.0366748 0.131706 -0.0980622 0.164724 0.442979 0.392729 0.0965684 -0.10522 -0.00953596 -0.002378 0.167903 -0.0856228 0.601444 0.0770005 -0.176142 0.262832 0.476856 0.102079 -0.105506 0.209635 0.00973928 -0.0433229 -0.228072 0.226011 -0.0253869 0.103646 0.170685 0.16412 -0.143606 -0.272407 0.310512 0.318392 -0.0243579 -0.0201889 0.0242755 0.0843858 -0.126665 -0.419957 -0.522443 -0.270007 -0.05344 -0.0804841 0.178278 -0.0429878 0.291065 -0.0525431 0.213862 0.131846 0.156748 -0.0671395 -0.0435542 -0.106244 -0.0351641 -0.345789 -0.308747 -0.0472614 -0.206042 -0.387572 -0.174723 -0.154932 -0.165584 0.410485 0.0764992 0.551163 0.125078 -0.178562 -0.377275 0.291757 0.337599 0.0363189 -0.217832 0.315797 -0.325625 0.0818814 0.0984263
29 0.175613 0.578374 0.146059 0.14388 -0.504038 -0.0306582 -0.343031 0.437882 -0.0390523 -0.322239 -0.142852 -0.29403 -0.126712 0.239041 0.508378 0.230728 0.184899 0.000393607 0.248747 -0.128799 0.109365 0.273656 -0.237268 0.18145 -0.165247 0.260301 0.03507 0.0742977 -0.103142 0.583965 -0.0130355 -0.234487 -0.188132 0.180081 0.622388 -0.49073 0.417249 0.061654 -0.326979 -0.189629 -0.675626 -0.0629743 -0.0766054 -0.586748 0.0745017 -0.126084 0.245661 -0.195108 0.460643 -0.246591 -0.0187994 0.301257 -0.0526306 0.0754966 -0.0243977 0.0167568 -0.0775992 0.558313 0.227432 0.0375589 0.0670521 0.0791288 0.0276467 0.45775 0.341038 0.25513 0.238178 -0.41021 0.252962 0.553208 -0.00364695 0.358013 0.194849 -0.219823 0.184732 -0.392897 0.553207 0.0760021 0.176537 0.369538 0.375217 0.208235 -0.175009 0.466167 0.153778 -0.327942 0.256152 0.0780272 -0.0744202 -0.040865 -0.0105878 -0.390373 -0.280504 -0.0150535 -0.181186 0.127014 0.185098 0.425035 -0.117626 0.62083 -0.113377 0.34579 0.147996 -0.0353191 0.362847 0.116481 -0.225736 -0.581787 -0.131874 0.0265239 -0.465065 0.20823 -0.248228 0.106879 0.313198 0.55059 0.30278 0.41659 -0.469504 -0.220152 0.369138 0.0399748 0.0212257 -0.0522931 0.0385433 -0.390132 -0.394138 -0.0296458
18 0.243891 0.461013 0.217219 0.171099 -0.57208 -0.023527 -0.293154 0.405789 -0.0533391 -0.346345 -0.239524 -0.186599 -0.165245 0.273883 0.52277 0.182786 0.130566 0.00177381 0.227897 -0.124601 0.140318 0.34695 -0.271165 0.16628 -0.188243 0.1336 0.0704204 0.0844316 -0.0036166 0.463583 -0.00485587 -0.172509 -0.142 0.176939 0.550815 -0.526638 0.354873 0.0679809 -0.183701 -0.194182 -0.472225 -0.070102 -0.0345348 -0.62062 0.126466 -0.0757709 0.14958 -0.179437 0.396963 -0.185322 -0.11199 0.459102 0.0618102 0.0110753 0.0878305 0.0465163 -0.0576558 0.583336 0.165545 0.0677997 0.0483112 0.0830323 -0.0176384 0.379365 0.208911 0.30389 0.188437 -0.35698 0.183823 0.527914 0.0611002 0.334141 0.203646 -0.24909 0.1246 -0.451531 0.426293 0.190035 0.0731215 0.461157 0.308514 0.177092 -0.0951004 0.349558 0.185607 -0.364862 0.269893 0.14416 -0.156781 -0.169966 -0.000966515 -0.282018 -0.301232 -0.157112 -0.252191 -0.10909 0.204721 0.385442 -0.177224 0.5735 -0.0475792 0.217969 0.0620763 -0.00608432 0.291522 0.0464435 -0.15814 -0.595098 -0.0782401 0.0160573 -0.388036 0.0699027 -0.25199 0.200479 0.273805 0.395406 0.287467 0.309634 -0.527951 -0.167927 0.354137 0.00401069 0.0368292 -0.0512672 -0.0783825 -0.322332 -0.319236 -0.0481485
59 -0.0503548 0.264154 -0.15282 -0.15059 0.00826992 -0.0952867 -0.260552 0.0216537 -0.292735 -0.0512434 0.182882 0.0390953 -0.0533831 0.183666 0.183285 -0.0791202 -0.188606 0.186398 0.238276 -0.0300718 -0.102912 0.0218296 0.0137636 -0.0478909 -0.0400729 0.148953 -0.305575 -0.133045 -0.182416 0.0990385 0.0149477 0.0391298 -0.173078 -0.00347853 0.239408 -0.214922 0.0728361 -0.0374894 -0.209997 -0.161053 -0.261182 0.310907 -0.0860017 -0.105326 -0.387917 -0.224201 0.0683748 -0.0223046 0.345395 -0.056482 0.34806 -0.35859 0.0251174 0.168345 -0.192709 -0.0444986 -0.0270538 0.257527 0.29118 0.262626 0.250958 0.0120166 -0.122129 -0.00604339 0.0242071 0.0562798 0.000846405 -0.189515 0.346017 0.122151 -0.226318 0.0711093 -0.0467238 -0.0683086 0.0732282 -0.0266267 0.0542459 -0.103011 0.00396782 -0.0865161 -0.0429384 -0.0471127 -0.102327 0.0808715 0.0160939 -0.283371 0.0088905 -0.32187 0.0517969 0.167606 -0.16873 -0.121122 -0.264787 0.0835788 0.0953361 0.175922 0.077848 0.379227 0.0309364 0.333416 -0.00812336 0.192803 0.040743 -0.116002 0.0502504 0.0754859 -0.243918 -0.0286897 -0.0734952 0.14834 -0.11134 0.112161 -0.0439085 -0.203402 -0.0189331 -0.00159706 0.0669525 0.277622 -0.174495 0.0361038 -0.10316 0.121631 -0.0618184 -0.0380879 0.31929 -0.181325 -0.351796 0.0611319
44 -0.0944311 0.89651 -0.16209 0.13126 -0.177809 0.0195037 -0.140315 0.056878 -0.0492981 -0.170008 -0.0663786 -0.255043 -0.0964318 0.215538 0.0498944 0.114915 0.0585028 0.188264 0.359659 -0.0843357 0.129981 -0.0492038 -0.110254 0.0945666 -0.0140279 0.361219 -0.0492003 0.0140514 -0.0438058 0.362585 -0.217874 -0.081066 -0.0654696 0.00608413 0.450587 -0.34226 -0.0621256 0.120277 -0.322073 -0.0706018 -0.485992 0.295344 -0.167738 -0.0851163 -0.366714 -0.185092 0.164468 -0.157911 0.44233 -0.134073 0.225006 -0.244526 -0.0194566 0.269733 0.0643052 0.0296713 -0.0478232 0.184952 0.172769 0.131239 0.0639931 -0.0042927 -0.0125957 -0.0530123 0.160555 0.345013 -0.118452 -0.419823 0.136054 0.540294 -0.101303 0.0370804 0.234098 -0.0498714 0.0534617 -0.0800007 0.277792 0.0393859 0.16105 0.0662768 0.163652 -0.00724689 -0.335847 0.421738 0.291114 -0.0563468 0.164353 -0.100519 0.00862419 0.0556415 -0.3362 -0.576519 0.193131 0.21757 -0.280754 0.299549 0.19471 0.087518 0.0306478 0.361982 -0.19585 0.45326 0.320559 -0.559074 0.0752298 0.040391 -0.200403 -0.0381234 -0.172262 0.0264757 -0.5553 0.2654 -0.22142 -0.200135 0.204844 0.17646 0.244205 -0.0433437 -0.154266 -0.27003 0.167374 0.385504 0.245484 -0.322933 0.34589 -0.341509 -0.239445 0.228344
47 -0.0370092 0.324777 -0.122212 -0.0836577 -0.0871692 0.0372365 -0.242761 0.122305 -0.169329 0.0102501 0.162457 -0.0143986 -0.112321 0.0890646 0.20656 0.00915775 -0.0622351 0.139487 0.140643 -0.0736708 -0.0996361 -0.0683785 0.0403657 -0.0176043 0.00507879 0.199189 -0.26159 -0.191301 -0.241572 0.152716 -0.0161327 -0.122651 -0.184258 -0.0257529 0.21916 -0.214718 0.150773 -0.110985 -0.209409 -0.147908 -0.27211 0.159944 -0.0402313 -0.0560535 -0.308115 -0.121849 -0.006037 -0.0755248 0.338201 -0.075143 0.21179 -0.307878 -0.099558 0.262441 -0.0388611 -0.133886 -0.0114403 0.169401 0.22051 0.142572 0.189743 0.036209 -0.0258174 -0.0240383 0.226021 0.0301193 -0.0206874 -0.284217 0.134005 0.144058 -0.262013 -0.0583834 -0.025029 -0.0637846 0.216998 0.0080982 0.138511 -0.049172 0.0977127 -0.0763217 0.132866 -0.0432904 -0.179311 0.20627 0.0936489 -0.10955 0.162328 -0.169055 0.0338667 0.122057 -0.11464 -0.152206 -0.0266964 0.17652 0.112797 0.0970464 0.123168 0.231832 -0.0531714 0.244008 -0.0724505 0.294353 0.0798684 -0.0891446 0.200591 0.172887 -0.191986 -0.0427164 -0.205146 0.0518128 -0.215868 0.188158 -0.193363 -0.174365 -0.0399702 0.129927 0.0903271 0.144408 -0.0774528 0.0121643 -0.125785 0.218835 0.0645831 -0.145789 0.404735 -0.204309 -0.272261 0.0312051
5 -0.0218048 0.759504 -0.0521175 0.059867 -0.290292 0.0643338 -0.179383 0.178617 -0.0535113 -0.264889 -0.043562 -0.235527 -0.117181 0.255329 0.119087 0.22321 0.077686 0.232335 0.320632 -0.0674787 0.157937 0.0618597 -0.117805 0.101126 -0.0151949 0.401061 -0.130902 -0.0174609 -0.125675 0.378916 -0.178111 -0.045797 -0.101486 0.136054 0.517291 -0.330155 0.0222298 0.0289257 -0.264848 -0.0928792 -0.468075 0.318754 -0.14722 -0.244857 -0.331609 -0.154844 0.158844 -0.210289 0.470056 -0.167311 0.304121 -0.29559 0.0383038 0.241031 0.0835819 -0.0107358 -0.0371104 0.318714 0.254702 0.163543 0.0302114 0.014344 0.0148803 0.00967608 0.224001 0.396208 -0.0494482 -0.356676 0.212038 0.532364 -0.122978 0.0126966 0.224616 -0.0534778 0.169007 -0.0904085 0.330168 -0.041293 0.234165 0.0764237 0.237497 -0.0201567 -0.348444 0.436395 0.353339 -0.0684496 0.181059 -0.111607 0.0275338 -0.0232683 -0.305241 -0.537466 -0.00980149 0.163671 -0.181297 0.271309 0.150644 0.228741 -0.00583388 0.393735 -0.114524 0.447024 0.172103 -0.354272 0.136703 0.0774017 -0.200505 -0.181655 -0.247584 -0.024369 -0.513847 0.20912 -0.24993 -0.201037 0.24854 0.281597 0.362181 0.0909859 -0.242639 -0.258034 0.108524 0.38312 0.202964 -0.288182 0.370672 -0.363664 -0.218152 0.121562
77 -0.0559612 0.846257 -0.107215 0.0876067 -0.218249 0.0329425 -0.185832 0.119347 -0.0457779 -0.248 -0.0546958 -0.261072 -0.104254 0.263423 0.0739161 0.191281 0.0311715 0.212417 0.342522 -0.072157 0.175629 0.0158661 -0.111931 0.103408 -0.0403052 0.411385 -0.100658 -0.0102952 -0.100261 0.385956 -0.217279 -0.0307326 -0.0763406 0.0820482 0.520347 -0.333244 -0.0108322 0.0875334 -0.294799 -0.0897945 -0.489191 0.360383 -0.173185 -0.209692 -0.369954 -0.206281 0.187273 -0.171921 0.478309 -0.16702 0.300605 -0.286581 0.0478237 0.226131 0.0552436 0.0288149 -0.072709 0.281156 0.234213 0.175462 0.0485359 0.00200788 -0.00761642 -0.0183154 0.203558 0.386561 -0.0698165 -0.38133 0.241522 0.543159 -0.12821 0.0424604 0.242107 -0.0571313 0.124058 -0.0872557 0.311646 -0.0376624 0.228105 0.0635241 0.19637 -0.00884301 -0.353539 0.432004 0.349251 -0.0931444 0.176111 -0.16802 0.0267867 0.00608611 -0.319295 -0.570447 0.0459306 0.176496 -0.24997 0.34515 0.177451 0.194176 0.0314557 0.408357 -0.140761 0.473492 0.241999 -0.458989 0.118508 0.0373249 -0.169142 -0.115509 -0.210537 0.00827871 -0.535492 0.244392 -0.225871 -0.204831 0.268805 0.259336 0.32503 0.0722787 -0.247663 -0.266078 0.136656 0.386202 0.199952 -0.301364 0.343298 -0.362149 -0.249545 0.169471
19 -0.0232882 0.785788 -0.0738245 0.0675661 -0.258541 0.0676013 -0.186421 0.174721 -0.049109 -0.238519 -0.0353047 -0.232059 -0.130284 0.243115 0.109039 0.211837 0.0724437 0.217742 0.31598 -0.081795 0.156735 0.0285067 -0.101543 0.0973298 -0.0184495 0.40786 -0.109753 -0.0388379 -0.136956 0.380483 -0.190706 -0.0581951 -0.109859 0.0973775 0.493111 -0.340262 0.0330053 0.0361923 -0.279712 -0.101589 -0.459672 0.311952 -0.150364 -0.231726 -0.337068 -0.179027 0.145007 -0.199325 0.466168 -0.168247 0.26634 -0.276389 0.0205588 0.243785 0.0974609 -0.0151082 -0.0524326 0.279063 0.238464 0.151978 0.0431242 0.0110004 0.0104107 -0.00495088 0.241375 0.366138 -0.0592799 -0.389191 0.195685 0.520296 -0.1414 -0.00277532 0.220419 -0.0593291 0.169056 -0.0962761 0.307595 -0.0257487 0.232748 0.0629319 0.238263 -0.0177354 -0.356029 0.440762 0.349095 -0.0724568 0.206763 -0.12689 0.028477 -0.00954414 -0.296328 -0.532606 0.0454756 0.177342 -0.202758 0.28438 0.179022 0.191284 -0.0234247 0.383975 -0.121837 0.462887 0.215105 -0.385036 0.169696 0.0766084 -0.174972 -0.152155 -0.23826 -0.0196521 -0.522043 0.229401 -0.268409 -0.18503 0.251165 0.274141 0.328886 0.0741685 -0.231179 -0.246378 0.119776 0.396846 0.194481 -0.304591 0.367321 -0.359286 -0.221777 0.135285
48 -0.0489957 0.760806 -0.0580338 0.0720356 -0.273663 0.0716242 -0.167953 0.166708 0.0142191 -0.284958 -0.0696054 -0.284886 -0.0842364 0.244937 0.0797337 0.254246 0.0908745 0.218642 0.294788 -0.0453707 0.197678 0.0522228 -0.126123 0.121864 -0.0287726 0.435633 -0.100653 -0.00550679 -0.123192 0.395335 -0.19747 -0.0345527 -0.0561557 0.154637 0.518163 -0.294596 0.00450903 0.0561277 -0.257121 -0.0678873 -0.471015 0.324628 -0.160336 -0.238601 -0.303918 -0.148689 0.191051 -0.200139 0.455412 -0.192881 0.307882 -0.293305 0.0557247 0.219087 0.0843108 0.00888785 -0.0616804 0.294807 0.230254 0.152387 -0.012294 0.0085267 0.0382161 0.0121704 0.245836 0.406881 -0.0506072 -0.323577 0.210876 0.542061 -0.1107 0.02377 0.241023 -0.0415518 0.178902 -0.0684688 0.364856 -0.0714146 0.275094 0.0668408 0.246616 0.00240848 -0.360562 0.442309 0.369738 -0.0269046 0.174835 -0.121282 0.0370129 -0.0363226 -0.29552 -0.562655 0.0013123 0.182904 -0.202367 0.325196 0.127775 0.204746 0.0287985 0.368589 -0.127036 0.465806 0.174682 -0.367617 0.133633 0.0660325 -0.159673 -0.177241 -0.258947 -0.0376978 -0.519365 0.221458 -0.242769 -0.208693 0.28546 0.327977 0.379874 0.0861522 -0.243402 -0.287903 0.107246 0.373623 0.225815 -0.280173 0.34594 -0.35755 -0.190134 0.123826
40 -0.0884487 0.86905 -0.238698 0.120768 -0.0642844 -0.0476938 -0.157737 -0.00380907 -0.14134 -0.0581032 -0.014445 -0.155603 -0.126471 0.187838 0.0642509 -0.00533963 -0.0127891 0.150916 0.37196 -0.123835 0.0499059 -0.111984 -0.0615288 0.0457767 -0.00472405 0.288992 -0.0509786 -0.0392661 -0.0669246 0.30785 -0.174355 -0.10356 -0.10738 -0.114206 0.344727 -0.365783 -0.0539176 0.139785 -0.35063 -0.134665 -0.447743 0.258465 -0.151492 -0.0214448 -0.415386 -0.257763 0.107786 -0.098214 0.42062 -0.0878825 0.173687 -0.209919 -0.0839861 0.277484 0.0112593 0.00668173 -0.0559808 0.112068 0.167937 0.143049 0.163513 -0.00367051 -0.0818286 -0.0944316 0.0981345 0.216892 -0.127489 -0.475606 0.135004 0.447257 -0.161353 0.0238426 0.157055 -0.0907562 -0.0129116 -0.105683 0.141639 0.0861264 0.0737855 0.0223371 0.0920966 -0.0242815 -0.277315 0.34208 0.196245 -0.152573 0.184155 -0.165851 0.0156355 0.137226 -0.305895 -0.475131 0.258394 0.199471 -0.277452 0.281449 0.262036 0.048746 0.0056702 0.351101 -0.200688 0.424066 0.38833 -0.591584 0.0965883 0.0205094 -0.182736 0.0634516 -0.090014 0.0864804 -0.499578 0.276077 -0.204319 -0.169159 0.120809 0.0384461 0.112343 -0.0482522 -0.105562 -0.180758 0.164065 0.349023 0.166137 -0.312697 0.320787 -0.313544 -0.309373 0.274739
58 -0.0617487 0.921767 -0.330502 0.103017 0.159944 -0.197159 -0.307416 -0.154544 -0.17521 -0.12587 -0.027791 -0.0800769 -0.152833 0.333348 -0.0269777 -0.0372798 -0.359186 0.0907014 0.413775 -0.162145 0.17345 -0.0870391 -0.0203039 0.0182563 -0.20264 0.249338 -0.0162979 -0.115518 -0.0539213 0.224272 -0.28084 0.109817 -0.0899712 -0.248671 0.391865 -0.381318 -0.0806564 0.272128 -0.304959 -0.279316 -0.344684 0.555137 -0.208257 -0.195521 -0.536262 -0.577236 0.130498 0.0547225 0.447779 -0.103885 0.29411 -0.115448 0.14018 0.0324285 -0.135085 0.150885 -0.2874 0.145118 0.214867 0.354754 0.291787 -0.0594031 -0.257242 -0.210693 -0.052074 0.212698 -0.118929 -0.471401 0.522521 0.405752 -0.25293 0.100938 0.146762 -0.147808 -0.124834 -0.170067 -0.0918321 0.0122594 0.0980629 -0.0406009 -0.123429 -0.044059 -0.226387 0.227588 0.229022 -0.454553 0.219993 -0.540841 0.0206794 0.15918 -0.298409 -0.363039 0.0814938 -0.00852153 -0.517435 0.503685 0.38141 0.117188 0.0276427 0.442115 -0.0814829 0.395687 0.419761 -0.719441 0.0915747 -0.231357 0.0879218 0.209577 0.0645349 0.237052 -0.403937 0.210236 -0.104559 -0.0929127 0.239921 -0.0947318 0.0624155 0.144562 -0.360114 -0.0503541 0.228817 0.31943 -0.0624804 -0.248891 0.0699275 -0.273043 -0.421505 0.324024
24 -0.063235 0.899195 -0.350338 0.072468 0.1592 -0.189811 -0.264119 -0.166244 -0.227344 -0.117774 0.00725993 -0.0717637 -0.11381 0.355751 -0.0391499 -0.0666418 -0.33909 0.139213 0.420826 -0.134807 0.15226 -0.0796096 -0.0308854 0.00858098 -0.154731 0.276802 -0.0404251 -0.10436 -0.0266545 0.233852 -0.265648 0.124425 -0.0963041 -0.211648 0.377774 -0.387079 -0.0973164 0.266726 -0.312937 -0.227892 -0.349525 0.57513 -0.224328 -0.171196 -0.563519 -0.546127 0.165248 0.0288648 0.447806 -0.0804077 0.306647 -0.203353 0.143769 0.0659424 -0.125863 0.158531 -0.237849 0.159224 0.224664 0.381097 0.284847 -0.0674041 -0.248198 -0.215432 -0.0855339 0.259531 -0.113355 -0.442859 0.534323 0.402991 -0.224611 0.0886672 0.14269 -0.116245 -0.139895 -0.164477 -0.0800711 -0.012199 0.0611542 -0.0260304 -0.142416 -0.0380559 -0.225248 0.200469 0.23741 -0.435543 0.139982 -0.535598 0.0136638 0.148502 -0.306249 -0.411417 0.066074 0.0146636 -0.47201 0.491947 0.33462 0.160338 0.0745926 0.467458 -0.0617161 0.36184 0.388206 -0.713612 0.036294 -0.221078 0.0238893 0.207815 0.05275 0.2395 -0.403292 0.188463 -0.0719019 -0.113844 0.221797 -0.0948901 0.0706891 0.153514 -0.321684 -0.0649656 0.216327 0.308069 -0.0471579 -0.235643 0.117226 -0.277964 -0.429746 0.324979
34 -0.112857 0.508796 -0.248962 -0.0954225 0.0956653 -0.151491 -0.272714 -0.072413 -0.311398 -0.0391956 0.155322 0.000125788 -0.061248 0.223468 0.126536 -0.112029 -0.249945 0.187754 0.31546 -0.0506842 -0.0772469 -0.0480529 0.0214357 -0.0439448 -0.084531 0.198524 -0.263043 -0.129905 -0.161313 0.14402 -0.0679727 0.0687287 -0.173513 -0.111017 0.279993 -0.260772 0.0246779 0.0589187 -0.293908 -0.17883 -0.325015 0.390272 -0.123541 -0.0829598 -0.492031 -0.340472 0.110355 0.00882458 0.39516 -0.073939 0.367773 -0.387001 0.0339273 0.182901 -0.221464 0.00561267 -0.0663367 0.22527 0.304007 0.318546 0.280692 -0.0134696 -0.178908 -0.068126 -0.0100642 0.0814602 -0.0481319 -0.2851 0.412854 0.205976 -0.242974 0.0941257 0.00638819 -0.0970351 -0.000543782 -0.0581068 0.0113029 -0.0676854 0.0256312 -0.0976901 -0.0925637 -0.040438 -0.149018 0.141519 0.0528306 -0.338024 0.0358096 -0.417541 0.0436608 0.22085 -0.249253 -0.221611 -0.157719 0.107056 -0.0393945 0.318319 0.161122 0.344999 0.0484063 0.404443 -0.0544401 0.278953 0.183213 -0.349478 0.0334121 0.0115226 -0.208273 0.0707149 -0.03531 0.202838 -0.207524 0.176283 -0.0235978 -0.222715 0.0326655 -0.0597989 0.0308156 0.236366 -0.198479 0.0147204 -0.0109564 0.183672 -0.0716676 -0.093776 0.319488 -0.212426 -0.413572 0.166915
66 -0.0953277 0.568872 -0.278969 -0.065036 0.0818333 -0.151491 -0.265263 -0.0734266 -0.291717 -0.0511698 0.136274 -0.010842 -0.0736535 0.219937 0.11558 -0.107199 -0.214732 0.180769 0.33464 -0.07137 -0.0523472 -0.0578553 0.000527898 -0.0331598 -0.0835421 0.213786 -0.212767 -0.121843 -0.140784 0.18109 -0.0792507 0.0407028 -0.15885 -0.113399 0.289812 -0.296066 0.00394216 0.0981504 -0.316429 -0.183016 -0.354517 0.387569 -0.145191 -0.083016 -0.488196 -0.349836 0.122267 -0.00269579 0.400131 -0.0762904 0.327144 -0.332721 0.0202153 0.193362 -0.197139 0.018214 -0.0839665 0.209178 0.282738 0.295071 0.283193 -0.00579141 -0.184931 -0.0722169 -0.0194208 0.0995612 -0.0603616 -0.332135 0.388925 0.247702 -0.237217 0.0997085 0.0127451 -0.0986898 -0.0287303 -0.0838025 0.0238027 -0.0530897 0.00608698 -0.0772098 -0.0794134 -0.0394593 -0.155488 0.148471 0.055369 -0.350942 0.0434613 -0.397755 0.0611057 0.222594 -0.248433 -0.264388 -0.0878555 0.117249 -0.108121 0.317663 0.187278 0.303434 0.0543429 0.420108 -0.0834475 0.293803 0.23412 -0.40067 0.0534151 0.00332448 -0.205743 0.0681298 -0.0293495 0.198514 -0.254459 0.195865 -0.0484553 -0.196734 0.0478617 -0.0610748 0.0328484 0.211848 -0.204552 -0.0107655 0.0311938 0.204808 -0.0476718 -0.121823 0.287182 -0.230128 -0.418411 0.191144
16 -0.0574773 0.494884 -0.177671 -0.00613 -0.073602 -0.00343768 -0.204299 0.0657823 -0.188721 0.0543324 0.102361 -0.0108962 -0.138809 0.0859063 0.187992 -0.0575439 -0.0280146 0.120391 0.204049 -0.103395 -0.112728 -0.122188 0.0101466 -0.0137155 0.0194342 0.179094 -0.181309 -0.157189 -0.182481 0.186441 -0.0341128 -0.180131 -0.180542 -0.107936 0.190988 -0.294582 0.0912783 -0.0326331 -0.276821 -0.167914 -0.299905 0.111052 -0.0583387 0.0162778 -0.337603 -0.139212 -0.0282435 -0.0816054 0.352911 -0.0501138 0.11385 -0.228197 -0.149696 0.316489 0.00311405 -0.110903 -0.000821039 0.0973876 0.176912 0.1188 0.210107 0.0325468 -0.0576669 -0.0575662 0.168582 0.035451 -0.078854 -0.394382 0.0406247 0.211968 -0.247048 -0.0592644 0.00652258 -0.0899018 0.116475 -0.0519175 0.0903741 0.0652426 0.026753 -0.033718 0.115506 -0.0496761 -0.190445 0.239255 0.0772397 -0.123662 0.189434 -0.110331 0.00434475 0.142479 -0.153684 -0.217131 0.150935 0.193024 0.00165487 0.058244 0.202371 0.111637 -0.0761912 0.254818 -0.140786 0.310149 0.220801 -0.259437 0.183908 0.151726 -0.213608 0.0233083 -0.152515 0.0742043 -0.295784 0.21663 -0.222546 -0.145615 -0.0596528 0.0286757 0.0295617 0.0186526 -0.0265204 -0.0285009 -0.0350701 0.255223 0.115965 -0.215893 0.391206 -0.218326 -0.291483 0.132936
17 -0.0584688 0.725953 -0.230925 0.0604519 -0.0451886 -0.0380623 -0.186413 0.0153981 -0.206663 0.0191593 0.0500065 -0.0559004 -0.159254 0.148126 0.132173 -0.0583164 -0.0452096 0.14053 0.313695 -0.140778 -0.0391796 -0.136608 -0.0125039 -0.0044772 0.00139004 0.237178 -0.104871 -0.12529 -0.129371 0.244444 -0.115382 -0.143058 -0.171728 -0.151897 0.264215 -0.365286 0.0314938 0.0565125 -0.328532 -0.181653 -0.365692 0.196348 -0.114038 -0.0110095 -0.418436 -0.243426 0.0187641 -0.0802237 0.401659 -0.0600266 0.128689 -0.209909 -0.110455 0.304902 0.0185892 -0.0533814 -0.0452237 0.0992045 0.187965 0.152868 0.214146 0.00940088 -0.100989 -0.107901 0.116628 0.113946 -0.118892 -0.483758 0.110276 0.32708 -0.230263 -0.0370872 0.0713123 -0.104669 0.0347119 -0.106544 0.0660529 0.0999276 0.0382432 -0.0108896 0.0899257 -0.0458395 -0.242628 0.290854 0.138376 -0.17285 0.216364 -0.171703 -0.00121189 0.156727 -0.234044 -0.349529 0.238994 0.181888 -0.170728 0.184384 0.272648 0.0760719 -0.0549158 0.327347 -0.167279 0.379159 0.339708 -0.46825 0.163678 0.0742962 -0.178254 0.0708063 -0.116516 0.100954 -0.410067 0.24593 -0.226252 -0.137465 0.02701 -0.0166739 0.0463012 -0.0219912 -0.0822401 -0.0880096 0.0860182 0.327417 0.124009 -0.285523 0.363103 -0.268995 -0.320523 0.227712
6 -0.0306985 1.12 -0.297678 0.0810592 -0.236612 0.120638 -0.365049 0.222272 -0.221341 0.060418 0.108734 -0.01616 -0.389246 0.143653 0.310207 0.0579566 0.0861078 0.236922 0.312138 -0.265338 -0.0724432 -0.281222 0.0450998 -0.00105624 0.0305505 0.477368 -0.222915 -0.415829 -0.438069 0.443547 -0.158157 -0.431674 -0.368927 -0.213439 0.388398 -0.655608 0.218177 -0.0841806 -0.525476 -0.39485 -0.481364 0.146625 -0.131711 -0.0563069 -0.634522 -0.283419 -0.168444 -0.243617 0.683285 -0.128113 0.0474893 -0.341406 -0.24731 0.684372 0.311107 -0.242736 -0.0721749 0.119082 0.301514 0.157145 0.270122 0.057457 -0.0709558 -0.233347 0.469308 0.154645 -0.220919 -0.90029 -0.0399924 0.503393 -0.536073 -0.348611 0.0745304 -0.208739 0.328027 -0.167013 0.107059 0.188315 0.193733 -0.0525532 0.420605 -0.127769 -0.512725 0.606963 0.392386 -0.0973302 0.588778 -0.119246 -0.0278918 0.121382 -0.280554 -0.494907 0.534513 0.377994 -0.138203 0.073344 0.514087 0.0287157 -0.302299 0.427039 -0.275678 0.74798 0.510681 -0.567026 0.571577 0.333694 -0.202529 0.0378033 -0.473278 0.00951576 -0.717521 0.447074 -0.635451 -0.191018 -0.0255428 0.108064 0.148746 -0.134581 -0.0786664 -0.128188 0.00880942 0.726154 0.308673 -0.593591 0.78324 -0.453546 -0.429168 0.252563
